1105 32
<PAD> 1.9269153 1.4872841 0.9007172 -2.105521 0.6784184 -1.2345449 -0.043067478 -1.604667 -0.7521353 1.648723 -0.39247864 -1.4036071 -0.7278813 -0.5594302 -0.7688389 0.7624454 1.6423169 -0.15959747 -0.49739754 0.43958926 -0.75813115 1.0783176 0.80080056 1.6806206 1.2791244 1.2964228 0.6104665 1.3347378 -0.23162432 0.04175949 -0.2515753 0.8598585
<UNK> -0.04122894 0.16437982 -0.031068936 0.012747094 -0.006668387 0.042524464 -0.09496871 0.03475894 -0.040976115 -0.019911394 -0.20163353 0.07509339 -0.113046765 0.04760221 -0.18644719 0.084362224 -0.11099058 -0.005462561 0.0077911727 -0.14974473 0.057409048 0.16773394 0.1515911 0.12184104 -0.05644516 0.0038145029 -0.0912343 0.17839767 0.1081653 0.22300419 0.014133543 0.059795342
“ 0.21924472 0.3516964 0.45723978 -0.14068612 0.1087666 0.079945326 -0.30594367 0.028007774 0.13240701 -0.094049506 -0.15696597 0.22270568 0.20833075 -0.14885342 -0.52233505 0.012346115 0.0635151 -0.16476539 -0.15901981 -0.17766057 0.20227176 0.067376755 0.1994452 0.04733536 0.19558261 0.04302101 -0.23755667 0.36496246 -0.07262879 -0.06240786 0.15550846 0.083489835
人们 -2.302733 0.4093763 0.71855944 0.054053977 0.6782513 0.58107275 1.0964103 -0.35833135 -0.27070928 0.72114986 0.3428017 0.21180442 0.25484088 1.2160181 0.0150264595 -0.45831138 -1.2740335 -0.093891926 -0.654413 0.4214103 0.7452584 0.10928431 -0.4126463 0.40115142 -0.008853772 0.22149213 0.058887217 0.6998094 0.9551801 0.37704277 0.6120548 0.43706578
常 1.9241265 1.0059094 -1.3593671 -1.0776681 -0.06517528 1.6200906 0.68724436 0.5539153 1.0764352 0.001958783 -1.7527859 0.9237683 -0.30756056 0.99466676 -0.74637145 0.6572276 -0.9544415 0.87761647 1.6071945 1.4084697 0.26507667 -0.24339747 -0.7225013 0.084464304 0.36447546 0.95607054 -0.4087771 1.5496955 -2.429208 -0.37084654 -1.1870477 0.7592973
说 -0.91585284 0.11248874 0.039160877 -0.5381491 0.28145278 -0.23567064 0.059406444 -0.7613608 -0.98137164 0.83860165 0.40924442 -0.016257478 -0.82198197 0.4410037 0.23337568 1.3454605 0.063885696 0.3914249 -0.21896265 0.10814217 -0.3488156 -0.63213366 -0.09402709 -0.058062945 -0.6504499 -0.7659707 -1.4019192 -0.011507414 1.0965822 -0.42270762 0.17525908 0.6791513
生活 1.6995176 -0.86195576 0.8986565 -0.32213014 -1.1432226 0.34088233 0.45199656 1.3063279 0.5101801 2.050858 -0.50386244 -0.9126978 0.26414275 1.0587913 1.1882367 0.40005812 -0.7476927 -0.9475117 -0.5122889 -0.55962646 0.111806795 0.39801085 -0.11415498 -2.179366 -0.34288377 0.99372053 -1.7325227 1.4721501 0.31156304 -0.38955498 0.95903563 1.6353974
是 0.019429216 0.61283636 -0.062322255 -0.08014064 0.07921804 0.11038208 -0.000683221 0.46904996 0.052696303 -0.30531985 -0.6618371 -0.18158454 0.09562354 0.0053228317 0.04904047 0.00897779 -0.5124149 0.1497935 0.30141473 0.12060181 0.028642124 0.094910875 -0.10638972 0.6887154 0.28412256 -0.308131 0.23320131 0.0023374045 0.33373234 0.28298262 0.15332082 -0.00039098662
一 -0.49555978 0.29132834 -1.2504752 -1.1564028 -1.0100517 0.3170811 -0.22717558 0.50648427 -1.1459937 -0.18786255 0.6550758 0.3794716 0.6969435 0.027129434 -1.538343 0.22875355 -0.9522011 0.45158607 -1.7946376 0.10528336 0.22290485 -0.56483406 1.3864322 0.18754195 0.7940549 1.5395705 0.5768909 0.5955294 0.40318215 0.93684614 0.3526225 -0.20332591
部 0.96477246 -1.002959 -0.6010151 -0.41940236 -0.28519022 -0.137497 -0.7212375 -0.07082071 1.9625165 0.25099257 0.93106663 0.65238965 -0.00045270615 0.17243713 1.2968824 0.7193532 0.44986564 -0.7345911 0.78925467 -0.99494284 0.40317887 1.2241095 -2.1910431 -1.2445922 0.14824459 -2.100155 -0.13843848 -1.0458431 -0.71270293 -0.07274728 1.1969888 -0.9831763
教科书 0.43426836 -0.71939677 1.0582305 -1.4859426 0.47183114 0.37588838 6.579282e-05 0.10770314 0.32675093 0.6803768 -1.6801897 -0.7795316 0.4051379 0.28166184 -0.5703651 0.06178301 0.87059706 0.1794067 0.776438 -0.045449153 0.56185436 -0.6984325 -0.46188787 0.047544587 0.59333754 1.6133449 -0.11184827 1.0784358 0.9233115 -0.64107305 -0.5625504 -0.3439615
， -0.042874612 0.18497774 0.078761846 0.0040931026 -0.005851642 0.024137247 -0.07060695 0.0063694953 -0.040453125 -0.13157763 -0.13899396 0.11780574 -0.041709997 0.10931687 -0.121690005 0.060946435 -0.05541686 0.004290634 0.044833634 -0.032077715 0.052026648 0.10950776 0.09040787 0.18963075 -0.035342433 -0.021251416 -0.068370245 0.1199348 0.21821462 0.2231244 -0.025929304 -0.010905003
而 0.6150361 -0.09878573 -0.09060697 0.17868365 1.3176578 -0.7783447 -0.49943706 -0.014585349 -0.8363338 -2.196401 -0.39026666 0.753193 0.8513787 -0.2527625 -0.715838 0.860611 -0.05585638 -1.0547202 -0.63613105 -0.46679312 0.85219526 -0.033970356 0.15286855 0.035229705 0.8202584 -1.4086776 0.91229653 0.8886967 -0.11614342 -0.33562288 -0.1685931 0.6873229
与 0.598337 -1.0734369 -0.58702946 0.3644592 -0.47797772 -0.4569988 -0.09060743 -1.4036804 -0.44481346 -0.7322258 0.08330028 0.12280392 0.8154439 -0.49601763 -0.43580827 0.6822234 -0.6399474 0.9938152 -0.32220253 1.110042 0.83791214 0.019945253 0.7308407 0.8963112 0.57787603 -1.1516657 -0.046006992 -1.0295258 -0.13732325 1.1143379 0.672687 -0.67463046
的 0.003457106 0.1290236 -0.08956359 0.04466755 0.027677245 0.0233382 -0.07445211 0.0362148 -0.076070644 -0.11235141 -0.19685566 0.102109574 -0.14752105 0.04220241 -0.07242975 0.110353194 -0.02015696 -0.051905323 0.0026254253 -0.087601624 -0.0026294217 0.069801316 0.134048 0.09239397 -0.0517089 -0.08630965 -0.10148765 0.13887675 0.21037409 0.154153 0.05089006 0.0345912
战争 1.5701075 0.8500575 -0.3797353 -0.6429387 -0.50361127 -0.5603613 -1.6484383 -1.0352156 -0.44389933 -0.08376112 -0.5140255 -1.1730558 -0.39182618 -0.0365775 0.39131662 -0.06521803 1.1062205 -0.336956 0.6737167 0.121038914 -0.7401582 -0.6288503 -1.2134099 1.9553525 -0.93869436 -2.530399 0.7002503 0.8119451 0.5899588 0.40284932 -0.30915725 0.53324884
更 -1.1745071 0.44142103 -0.6171242 0.09518648 1.3102696 0.32335007 -0.74538 -0.876412 0.3956544 -0.48222062 -0.04865296 -0.29126847 -1.7270231 0.0957216 -1.8151342 -0.45851675 1.1824416 -1.2203436 0.7321858 0.45956096 0.28769442 -2.3900874 -1.1697142 -0.80960447 0.21098901 -0.15022044 0.99726063 -0.32516626 1.0176511 0.7479139 1.1570714 -0.49637142
她 -1.6388457 0.052277524 -1.1199411 0.8907918 -0.46873102 -0.54304326 -0.30392432 1.4520274 1.6669707 -1.0658184 0.9032225 1.650746 -1.9260181 -0.4115934 -0.9361477 0.057737455 1.6507976 2.1219337 0.51113224 0.078656614 0.06889714 -0.3969137 0.27483663 -0.24644752 0.36936006 0.6396993 1.061658 0.12310761 0.49498874 -0.40050018 -0.10061525 0.66562325
确实 -0.74782294 -1.1276144 0.1742425 -0.85224897 -1.7005419 -0.24781163 -0.46969032 2.103232 -0.44472012 -1.2161767 0.70923346 0.07698978 -0.30906406 -0.21341802 -1.1271999 -0.93715245 -0.050230406 0.039143052 0.72942084 -0.16002679 -0.89655685 0.25986865 0.7832166 -1.063404 0.3625128 -1.2079686 0.14693248 0.43252334 0.65775853 0.16264807 1.7331206 0.60786015
‘ -1.2659667 1.9368733 -0.90563965 0.5430936 -0.5203184 -2.0220325 1.1057353 0.25720552 -0.5378978 1.1757077 1.2963893 0.022605423 0.3365548 0.25653452 0.471635 0.9132827 -0.3521277 0.22320592 -0.4050371 -0.340893 0.15810038 0.0855006 0.5094916 -0.4277861 -0.89828116 -0.26828465 0.43118557 1.392019 0.09344512 1.3068923 0.087137036 0.38694975
我 -0.43978342 0.06045646 0.5964755 -0.05741261 0.10174448 -0.24248338 -0.42487535 0.054759115 0.06710107 0.015771125 -0.4582713 0.46489578 -0.10098019 -0.053580377 -0.5989633 -0.021274202 0.044567425 -0.13772939 0.13848758 -0.7552929 0.1904362 0.33670333 0.14568858 0.10888902 -0.45991874 -0.119681045 -0.6663763 -0.11702219 0.13904548 0.32198054 0.052113563 -0.38011554
大学 2.1547275 -1.5083929 0.10334482 -1.1460819 -0.53954625 0.8953598 0.25001225 -0.5859361 -2.7605543 -0.70868254 0.5588305 -1.7012655 0.8481198 -0.2630141 0.18288694 0.79941976 0.12380522 0.755122 0.29101026 2.6567292 0.417969 -0.28062388 -0.1341836 1.4788979 -0.12269888 -0.3412493 1.4182154 -0.69984174 -1.2004389 2.9876673 1.3455733 0.87333125
’ 0.16167893 0.44006395 0.94373053 1.264811 -0.1489173 1.2613511 -0.03563577 -0.52809745 -1.090745 -0.00044655352 -0.30205628 -0.6961116 -0.41091925 0.41249606 0.74413824 1.0996407 0.52458334 0.02817136 0.60225314 1.5004632 0.88674027 0.5263221 0.12114216 0.30834362 -0.13334386 1.1911092 -1.2869152 0.36755896 0.48052618 -0.8877562 -1.1864256 0.1851561
。 0.16872889 0.21199542 0.14223574 0.20763145 -0.07841109 -0.006262762 -0.07354445 -0.05334048 -0.12766334 0.08762032 -0.37461212 0.39842713 0.14178018 -0.028476115 -0.22862077 -0.2417273 -0.087605834 -0.057297133 -0.10107082 0.14809395 0.03871088 0.1613083 -0.0156038245 0.33068976 0.24198972 -0.0038085664 -0.1696242 0.3174115 -0.05669486 0.010490895 -0.09634425 0.2412883
心 0.31335372 -3.0563428 -1.4366498 -1.4127351 -0.57038146 -0.20882547 -0.7055028 -0.41633603 0.4719759 -0.79004896 -0.48430583 0.610307 -0.25214455 0.74600804 -0.7870009 -0.8811404 0.03047259 0.077975534 0.7481702 1.3001798 0.12004724 -2.4147775 0.4318155 1.8961641 -0.7190118 0.02162183 -1.5032655 0.31684938 0.7469896 1.424077 0.6856368 -0.10795123
知 0.89654315 0.51919323 -0.02495039 -1.4305207 -0.60374534 -0.21147805 0.20326549 -1.2381042 -0.41196182 1.3926408 0.3135528 -0.98900074 -0.6744541 -0.44407836 -1.268503 1.0440071 -1.0441028 -1.9515051 0.28723544 0.45393714 -0.00040726984 -0.9842073 0.22793017 -0.77520615 1.3685583 -0.35022992 -0.87435365 1.903857 -1.6437175 2.1186886 -0.66415113 0.13172092
春 -0.24522546 0.696303 0.32314324 1.5694861 -0.36884117 -0.43056852 -1.2259322 -0.5720351 -0.29023346 0.06967062 0.4421318 0.4580996 0.5002335 1.0213188 -0.590213 0.4033728 0.8095904 -0.89077216 1.4032372 0.80693424 -0.18465966 1.0005853 0.67201966 -0.14098722 -1.3983556 -2.3317537 -0.2693645 -0.12109035 -0.16287616 1.1179551 -0.2517827 1.6737664
似 -0.54290634 -2.1335294 -1.6735637 -0.6825903 0.35563412 -0.36895692 0.4578686 -2.3758268 -0.5729678 -0.59182554 1.2601277 1.3097897 -1.1592742 -0.08331729 -0.95416296 1.4614737 1.3947027 -1.3407333 -1.3010099 -1.2342193 -1.5438972 -2.5127916 1.3718956 -0.5108975 0.7217965 -0.81412315 0.024210399 1.3602531 0.9295238 -0.34668815 -1.5280508 -0.7933706
花 -0.6833174 -0.34307292 0.94810313 -0.7728867 -2.3273957 0.33665606 1.838083 1.0533825 -0.44412136 -0.70981175 0.12803057 -0.25015956 0.47199088 1.681283 1.5200946 -0.36952052 1.7507862 -1.0675216 0.86532253 -0.81560093 1.0342245 -0.8325695 -0.56985337 0.35635045 1.0914378 -1.172924 2.5478153 -0.07513386 -0.07754621 1.27408 0.83446485 -0.90134
深 0.059009522 -0.31257167 -2.2143688 -0.50872374 0.42951912 -0.37156188 -0.22176467 -0.36567676 0.8316179 -1.0483937 -1.3026994 0.6653582 0.32578108 0.63219434 0.89596176 0.6416317 0.23168202 0.11772016 0.15973133 0.46709803 0.28009114 -0.57988554 0.5602303 -0.7416776 -0.22400314 -1.3596482 -0.48737612 0.055805948 0.3138447 1.467235 -0.35208002 -0.25051913
每 -0.42632613 -0.6903326 -0.10573334 -0.3391815 -0.617462 -0.7266269 1.2109803 -0.85988504 -0.21000466 0.88467014 -0.4877053 -0.86984736 -0.75529355 2.1346307 -0.6422571 0.56110305 0.84328806 -1.6900358 1.2181518 -2.7962337 -0.32715976 -0.63233805 -1.5135928 -0.26731852 0.10729676 0.69004923 1.7325704 -1.8876537 -1.3315518 0.53408456 0.40648684 -2.1251833
影 -0.12903629 -0.053392638 0.14285304 -0.5631215 0.07843447 -0.16192734 -0.5348871 -0.07807636 -1.0812953 0.39832702 2.1199102 -0.49649465 1.0630273 1.2144258 0.9639132 0.25974572 0.4832961 -0.5430636 0.3420106 0.065467395 0.63558596 -0.39033926 1.1467475 0.6840092 0.6527291 -0.7950139 -1.3550124 -0.44261426 0.124907106 1.0917298 0.5533727 1.5497084
生 -1.2156911 0.95829725 -1.5583613 0.6369684 -0.094418146 0.09045116 -1.6531215 -0.6929523 1.117243 0.43294045 -0.02636415 -0.06440766 -1.3114182 0.5743489 -0.057438903 0.2949894 -0.33899522 -0.14585279 1.1307787 -1.2403728 0.27601543 -0.07480972 1.2927866 -1.5357327 -0.25611272 2.069936 -0.0972639 0.6215925 0.775229 0.8201096 -0.0716708 0.005631613
香 0.6983268 0.20426767 0.28332984 0.13323216 0.26235855 1.4228456 1.4394078 1.0486137 0.7609877 -0.796159 0.77969676 -0.32696956 -0.3916613 -1.1509092 -1.7478174 -2.4221408 0.09661919 -0.84853953 0.39571953 1.434111 -0.861658 0.5622906 0.4140813 0.29246035 1.1982051 1.3616264 0.7167994 0.48906985 -0.08687412 -0.939229 -0.08649269 -0.8672467
吃 0.26676962 0.17626257 -0.32979742 0.79552627 0.17796744 0.3202185 1.177384 1.166662 0.6859082 -0.051151067 -1.4348103 -1.4497505 0.2764093 -1.3579077 1.7681268 -0.02778366 -0.32461992 1.4059048 -0.8175642 -0.73624986 -0.41135624 1.2065386 0.28525916 -0.09113583 0.78066385 -1.0284181 0.92844903 -1.0952986 0.974873 -1.0794715 -0.7948318 -0.20923315
东西 0.014511701 -0.20932084 1.1689291 0.67647547 -1.8964949 0.1989076 1.5646329 -1.0140401 -0.74749607 -0.3520973 0.12922053 -0.078014694 1.110227 0.052503124 -0.079491496 3.3792574 -1.0928667 -0.41455024 -0.026010266 0.5608124 0.12100499 -0.8468626 1.2402346 0.31220427 -0.10363589 2.4651377 0.55145055 0.14442226 -1.3102783 -0.58446324 0.6363587 -0.21875316
连 -1.3964783 -0.06583022 0.5323119 1.175089 2.1650496 1.7532856 0.2537635 -2.4142168 -0.34200156 -1.3403702 -0.44203204 -0.5628062 1.793746 -0.7297045 0.4265948 -0.5939708 0.10582355 -0.3220153 0.8586006 -1.0776453 -1.0022881 -0.97755533 2.8696227 1.4446567 -0.5656193 -0.93910635 -0.7477348 0.16849425 -0.28163466 -0.742991 1.2313153 1.0153444
也 0.7852938 0.59941095 0.73576903 0.46217358 -0.060762815 -0.69133073 -0.5380139 -0.7701754 -0.76186126 0.0010758407 0.5792719 0.41930503 0.8434286 1.4234103 0.043135535 1.0296552 0.23711097 0.16552755 0.46761027 1.540589 0.24056455 0.3258285 0.0014513705 0.7978502 -0.49924985 -0.7389508 -0.051696308 1.7031419 -0.58820146 -0.1230623 1.0337644 0.0519386
不 0.0096117575 0.6847073 0.6686615 0.3103425 0.032691333 0.2672817 0.086172976 -0.31064054 -0.7279418 0.31977567 -0.47919592 0.083176285 -0.13409668 0.81373143 -0.6943437 0.13575856 -0.031909857 -0.5973912 -0.7613964 -0.49320593 0.4195122 -0.39829385 0.6040024 -0.7405259 0.7172871 0.457027 -0.80051774 0.36049047 -0.61857265 -0.19363908 0.109159485 0.19292684
动 -0.59408253 0.54468274 -0.7667016 0.044993244 -0.7505175 0.9535922 0.44823176 1.1115652 0.47210512 -1.1593001 -0.77575064 0.041251395 -0.6833595 -0.56119794 0.8037957 2.230905 -1.7807696 -0.998792 0.6256214 1.0030982 0.9521985 0.02568766 -1.0356592 -0.74856657 2.4234214 -1.8851027 0.3129127 -1.4854646 -0.45104036 -0.12530129 -0.62169564 -1.2280836
呀 -0.20747003 -0.26238844 1.005108 0.16815987 0.541933 -0.9220237 1.1191162 0.27980635 -0.4976842 -0.89551693 -0.2409647 -0.6846664 -0.15932819 1.5602325 -1.5027448 -0.11439945 0.06157463 0.011017995 0.6684261 0.9339891 -0.74569213 -1.3027763 -0.6348551 1.3791304 0.24835819 -0.40674412 -1.1318282 1.3469262 -0.0073038423 0.0067878314 -0.9888504 -0.24481373
？ 0.7793346 -0.8026654 -2.041089 -0.6941995 0.7405223 0.97340375 -0.0926521 0.9471788 1.1443462 -0.19475573 -0.6597493 -0.30372092 0.4129578 0.33815533 -0.4229347 -0.32120815 -0.12983273 -1.3201001 0.37030745 -0.37313518 -1.7482076 0.11301716 -0.43357444 -1.0239648 -0.19850068 0.14280348 -0.040830407 1.0357356 1.6465986 1.7559911 -0.30171907 -1.2697401
他 -0.52437884 -0.69058436 0.37710768 -0.8864962 0.13778941 0.40630823 -1.0245997 -0.12204669 -0.66638625 -0.20906012 -0.49738535 0.49668753 0.23470873 -0.462213 -0.25311083 0.09503011 0.32844448 0.7273424 -0.17759506 0.80032223 -0.19546057 0.031129489 -0.12864867 -0.21496177 -0.047779493 -0.3178153 0.1193182 0.14602767 1.1577911 0.107672326 -0.35727215 -0.42916822
自己 2.4987445 -0.7165661 1.5828769 -1.0863746 -1.4020928 0.17358822 -0.7338325 -0.34322983 -0.72047806 0.0028077755 0.45986623 -1.1815885 1.1041619 0.16752103 1.6587486 -0.07584695 -1.0224237 0.8689717 -0.18314779 -0.9659035 0.60837615 -0.19637278 -0.32996953 -0.26897237 1.3620679 0.069755696 1.4957414 -0.009224664 0.917558 1.1525358 0.35341957 0.18845397
从 0.24495779 -1.0363556 -0.94644344 -0.459684 -0.9358904 0.5357339 -0.87813 0.659316 0.5792575 -0.26248255 0.16808942 -1.21929 -0.76590407 -0.46475375 0.10162857 0.85035783 -0.9126133 0.463314 0.9233318 -0.7554233 0.42207336 0.41154572 1.9460499 -0.7376009 -1.1957948 -0.14825548 0.20064797 -0.43139014 -0.7181127 -0.73498297 1.4668193 -1.4810839
一个 0.44530922 -0.16785155 -0.84080625 0.38799685 -0.037721265 0.5172791 -1.2335383 0.7133123 0.10736671 0.7903954 -0.023340339 0.16027786 -0.09772318 0.04986065 -0.8200379 0.9540741 -0.26546964 0.107309714 1.373418 -0.5518235 0.17188047 1.2267988 -0.7494231 -0.4386128 0.91650915 0.9872857 -0.965496 0.19563986 0.028918061 -0.32846773 -0.35587093 -0.18587223
出身 -1.0345702 0.24967073 0.18783893 0.6166235 -0.77392244 -0.65505975 -0.40046442 0.4474926 0.37762752 -1.8830581 0.23714007 1.4364259 0.67254883 1.4481492 -1.0789422 -0.70649195 1.0017527 -1.8170482 0.29595828 0.67376214 0.71792716 -0.55586994 -0.4383475 0.12094795 0.39175612 -1.9470456 -0.7879696 -0.1401085 -0.35082817 0.108894184 -0.32667255 0.32820034
成为 -0.114838816 0.07451389 -1.4720047 0.5003274 0.7042494 -0.2075874 0.53784 -1.8494226 -1.4647117 -0.16478474 -0.6162924 -1.1744202 -1.2240831 -1.4784673 -0.48671654 1.270074 -1.5626572 -0.82734257 1.4196904 0.8788993 0.5422552 -0.8341666 -1.0358473 0.53417104 -0.9201981 0.9868554 -1.0953879 -2.7171288 1.2225153 0.2806807 0.31985265 1.262944
伟大 -0.835764 -0.7149203 -0.20248275 -0.73000115 0.68012947 0.78041685 -1.1242676 -3.0470386 -0.9960874 -0.5478022 -0.7215354 -0.44683784 0.5429972 2.5913906 1.0880818 -0.12460631 -0.8736064 0.17370631 1.9351921 -0.738238 -0.8886239 -0.27351925 -0.5227198 -0.36746457 -1.1962521 -1.5214518 -0.81318146 1.109963 0.2018278 0.41017956 -0.0025164708 -0.53665036
者 -0.13752595 -0.23469478 -1.1885777 -1.2898874 -0.09342421 -0.5113986 1.1082659 -0.76651955 1.0955185 -1.1113143 -0.0742091 0.68153155 0.8541123 0.26669416 0.6339974 -0.5682056 -0.8301404 0.8571169 -0.54887843 0.31023648 -0.7073709 -0.08967018 0.4210233 1.3715324 -0.7241194 1.4047036 -1.074849 1.0896151 1.0649122 1.9711857 0.6480034 -1.0492598
进而 -0.32073185 0.30011111 -0.2721532 -0.34541652 0.37957335 1.1014456 0.7048868 1.00579 -0.11107338 -1.4658834 -0.009594878 -1.0173262 1.089109 1.64568 -0.2680765 1.1176988 0.8717213 -0.822285 -0.1779329 0.7985648 -0.08804291 -0.22514871 0.71358615 0.32579103 -0.4874549 0.775277 -2.887248 0.22830054 -0.44869685 -0.8416198 -1.3367213 1.4746614
位 -1.1116357 -0.6293876 0.2689789 -0.46469712 -0.15061952 0.06908458 1.4559608 0.9317977 -0.21110468 -0.984288 0.34983522 -0.056603856 0.100683585 1.0273664 -0.7397058 1.0373513 0.4005278 0.1074332 0.14248826 -0.38203394 -1.3213047 -0.5492706 0.85663694 -0.11768584 -0.98165256 0.19527386 -1.0103601 0.81862456 0.0814511 0.59189284 -1.364279 -0.25062865
共产主义 0.10028882 -0.10850285 0.07073938 0.71100235 -0.8896239 0.9194476 0.4784263 -0.7879395 0.3095263 -1.2207173 -0.57033914 -1.8916153 -0.9320105 0.36701065 -0.5625617 1.2473909 0.8222539 -0.54158044 1.174283 -0.9031718 0.7165963 1.5841929 0.07928612 0.21358497 0.3120185 -0.92643154 1.5545084 1.8491412 -1.0654871 -0.21826935 0.24670681 1.1662911
战士 -0.10298407 -0.07399775 0.85409343 -0.8207968 -0.580011 1.0059174 1.2167482 0.75702333 -1.2756985 -1.5138936 -0.5931076 0.32154948 -0.06826998 -1.1592658 -2.7466283 -0.036325842 -0.9009106 0.47501588 1.8586544 0.5500798 0.04268888 0.43902877 0.9552081 0.4505298 -0.16380031 -1.4428941 0.4987208 0.30090788 1.3495746 -0.90876824 -1.5985488 0.6477852
献身 -1.0035454 -0.34713662 0.2068417 1.111181 -1.4785848 -0.23773818 -0.47610933 -0.0729364 -0.89000535 0.6367692 0.73886424 -1.9940853 -0.6675453 -0.90396106 1.2011491 -1.3341982 -0.47498026 1.7285101 -0.55862266 -2.8999228 1.0846276 0.08569738 1.237238 2.9053428 1.9252336 -0.55470043 -1.3070505 1.073509 -0.44907007 1.3600821 -2.4110618 -0.06815445
于 0.12601835 0.11590535 0.020619994 0.3808645 0.24510886 -0.8696045 1.3880125 -1.9061754 -0.55439174 -0.6828008 -0.17417869 0.93032557 0.1851396 -0.09818758 -0.19755343 -0.34318694 -1.0744587 -0.5103055 -0.28469467 0.08481791 2.037297 0.73045474 -0.29174942 1.2012305 -0.2657939 0.21228114 -0.63334006 -0.46427178 0.4277139 0.66597396 0.04714586 0.32667214
事业 0.009471864 1.5376925 -0.012198103 -0.5059318 -0.8191768 -0.4764578 -0.2650642 -0.7958157 0.24784346 1.6158385 -1.0360049 0.37523 0.50832653 0.29170722 1.6733721 -0.5120608 -1.5378542 0.1378086 0.5578147 0.5264362 0.5169369 0.19466694 -0.60225534 -1.5750165 1.0211245 0.47006777 1.0613694 -0.082301244 0.45976564 -2.0893662 -0.75536424 -2.081643
用 -1.2001071 0.34391975 0.56611663 -0.48969746 -0.82271636 -1.4411265 0.9314555 0.036300834 1.1405044 0.9246622 -1.6719693 0.12027198 0.06661661 -1.3332672 -0.978802 1.0363339 0.47680047 1.4187608 0.020536615 0.23512426 0.13494444 0.900043 -0.8647268 1.1012312 -0.67501974 1.1833982 -1.7730852 0.7380067 -0.03645239 -0.82770807 -1.3640119 -0.7314578
和 0.62389064 0.56792605 -0.4337113 -0.98634213 0.8752899 0.45244235 -0.6514073 1.0747564 0.073194586 -0.23312065 -0.3762364 -0.16881508 -0.50637335 0.1910234 -0.78249395 -0.7674258 0.8433606 0.34322366 0.2847927 -0.26035106 0.15623818 -0.6616755 -0.32936263 -0.30762228 0.9256967 0.78383213 -0.39184222 -0.5791614 -0.2754081 0.8109214 0.7475002 0.38738433
有 -0.30654153 -0.37794784 1.176018 0.50472885 -0.13574532 0.7385117 -0.09566192 -0.43703666 -1.103277 0.26471066 -0.476352 1.3562562 -0.2996334 0.5970451 0.6542571 -0.14343181 0.66735286 1.2178143 0.33839533 -0.7467441 -0.3180643 -0.55899215 0.2182526 0.22643498 -1.1980234 0.39983633 0.006575273 -0.29941 -0.12919593 0.54673666 0.04560771 0.61597997
这 0.13251282 0.32097316 0.78049666 -0.36059302 0.95707816 -0.362946 0.98911 -0.11563546 -0.49623552 -0.18152086 0.22464544 0.5399904 0.6464178 -0.9629744 0.27483383 0.666687 -2.8840914 -0.09469322 1.3041432 1.1131151 1.8499378 0.43060604 1.120347 -0.9445124 -0.7152275 -0.39987335 0.26148367 0.62640214 -0.24358185 0.63550395 1.1274256 0.4768574
首先 -0.8304279 -0.8794726 -0.39493734 -1.232072 -0.11651245 0.6483155 0.14395095 1.2719144 -0.39797336 -0.45386 0.46310803 0.8334014 0.38591382 1.0921036 1.6965617 -0.030166881 0.9338955 -1.3936317 -0.7136648 0.9035841 -0.4186066 -0.4515873 0.56770897 -0.2139709 0.4973507 0.47170684 -1.7606769 -0.57551783 -0.53655154 -0.3427039 -0.73536175 -1.413576
个 0.71151334 -0.20469216 0.50568885 0.088221565 -0.15749235 0.201412 0.41749457 -1.3308218 -1.1898155 0.71800476 -0.17099226 0.81948465 0.8898292 -0.95733875 0.6964996 0.31932208 -0.8145068 -0.17785302 -0.9218525 -0.55389327 0.22393617 0.32291657 -0.7756591 1.1772223 0.04567189 0.39277983 -1.0517089 0.6099412 0.95200706 0.42694747 0.56884056 0.30804628
民族 -0.93127245 -0.7093439 0.6770235 -0.41062 -0.9526926 -0.85422134 1.2256716 0.32009214 -1.9504055 0.026177963 0.41019472 1.2017872 -0.9951498 -0.5575607 -1.409066 -0.50261706 -0.6431094 0.52835834 0.72641355 -0.22046879 -0.5746658 -0.42948943 -1.1965581 1.9156156 -0.15077157 0.5741934 0.65874785 0.5541776 -0.6636749 0.016383339 -0.7626598 -0.28615683
问题 -0.53234524 -0.025744531 0.25287485 1.3747042 -1.2281495 -0.15150379 -0.30728722 -0.8841747 -1.3722034 -1.2826754 0.7811646 0.043184746 0.30827287 0.24024053 -0.5358664 0.94025594 1.8798043 1.0516825 -1.6894886 -0.59670633 -0.28102875 -1.0782697 0.02041555 0.6949921 -0.017614394 -0.61595947 -0.5477933 -0.18612917 -1.3447045 -0.18908931 -0.76161397 -1.1880684
感情 0.15873504 -0.20304799 -0.508334 -0.89847624 -0.81396514 1.4957408 0.025685215 -0.058353256 -0.4142875 1.8506322 -0.9138872 0.4664144 -1.0149975 -1.3782562 0.70770824 0.6033768 -1.2935967 0.010402625 -1.0222268 0.28154138 -2.183932 -1.0185311 0.2240037 -0.82147896 0.9553946 -1.1929979 0.105903946 -0.11726577 0.44709134 0.54657716 -1.0221651 0.09570207
了 -0.035473477 -0.42178604 0.6357283 0.6719276 -0.2921944 -0.54425865 0.44208032 0.3429918 -0.62228626 -0.045491137 -0.71149695 0.06587513 -0.8233344 0.10824906 -0.18552643 0.50489146 -0.16685249 0.37582085 -0.3700917 -0.18177934 0.034136526 0.21788608 0.41785723 0.3083339 -0.6623131 0.11534019 -0.5801953 0.53695804 -0.07914501 0.87086505 -0.024330378 -0.14964311
一下子 -1.2933619 -0.12378182 1.3056669 0.16608906 1.3309537 0.67730755 0.47414735 -0.078611605 1.1507624 2.7355359 -0.06422959 -0.29100573 -1.3905593 -1.0354567 1.1023926 0.17691511 0.53744256 0.20219281 -1.1240213 -0.87029254 2.03098 0.12980264 0.014778785 -0.27712125 -0.674943 -0.76286644 -1.7482626 1.1916487 0.45974085 1.1655663 -0.27106306 0.85486746
出 -1.1388928 -0.5483233 -0.0066239345 0.47506365 0.58894175 1.2477263 0.16528934 0.10933954 -0.65820175 -1.1658173 0.352243 -1.3352783 0.250531 0.18515524 0.81702733 0.32779375 0.35868683 0.023641177 1.2979113 -0.15275584 0.19809784 -0.51217186 -1.1858555 2.5379946 -1.0050008 0.6586497 0.7702002 0.2365365 1.1947464 -0.67918015 -0.21778402 -1.6312371
溜 0.6494226 0.94034797 -1.0027395 -0.047976974 0.6297661 -1.4756013 -0.43177512 -1.595631 1.3593663 0.39242792 0.7459828 -1.4087336 -0.8437498 -1.546757 0.10830455 0.3011339 -0.69328916 0.8710723 -0.7810189 1.4301597 1.7328932 0.3101371 0.64336336 0.63122255 0.4215209 0.6245317 -0.75759524 1.7148967 -0.07091976 -0.29415524 0.9743778 0.10295778
下去 -0.040024847 -0.93161964 1.3924266 0.10916858 -0.19838603 0.41304636 -0.6291491 -0.3080814 -1.1847246 0.093222834 0.15180382 0.55320704 1.471288 0.06914959 -0.2774821 -0.6395986 0.017362071 -0.27551433 -0.6984623 0.43353853 0.44765913 1.0547993 -2.2863243 0.37288547 -0.9318776 0.79296064 0.7253901 0.1374274 -0.3056884 -0.024991732 0.1874156 -0.7261742
存在 1.5889965 -0.04225973 1.6123743 -0.19360526 -0.22532356 0.15216927 0.6576274 -0.1300972 1.4658267 1.6235626 0.34027702 0.010380048 -0.11204498 0.48999345 -1.2439542 0.42835468 0.009872277 -0.36781356 2.2349236 0.9920616 -0.26643267 -0.7193507 -0.14440915 1.3519264 -0.8759703 1.9783673 0.3485035 0.43471184 0.46788925 0.0075902236 1.2226306 1.0697461
关系 -0.99059033 -0.122486055 -0.49577108 0.36566845 0.35045227 1.2464797 -1.4914699 1.0358427 -0.73261964 -0.42936683 -0.012591708 0.20471321 0.89334047 1.9625084 0.116519615 0.2751148 0.5071801 -0.23903817 -2.4438827 -1.5228342 1.6524684 -0.39188397 0.80461305 0.19823854 0.7954113 0.8459905 1.7287604 1.4401609 0.2739807 -1.0932287 -0.44579837 1.3378903
所 -0.10566722 -0.54392344 -1.0111372 -1.1351883 -0.8025399 -0.47831625 0.09513627 -0.71522677 -1.356242 -0.7626029 -0.23558368 0.47921693 2.0297854 1.1589286 0.5816805 -0.193896 -1.3239836 1.5260062 -0.87751436 -0.93597704 1.6994423 1.448902 -1.0258763 1.3415871 -0.1044604 0.7968039 -0.16497606 0.8227273 -0.59375376 -0.41561726 -0.67449003 -0.35645694
这个 0.7053113 -1.8773849 -0.61553127 -0.81585425 -0.0040199207 -0.6905835 0.9211124 0.10381787 0.2509917 -1.2382487 2.135872 0.8269298 0.47470698 0.5327088 0.18509921 1.1961883 0.29466146 1.6507136 2.397473 0.28125447 1.3155007 0.15948378 -0.116319545 0.56310743 1.1600116 0.72562414 0.4612865 0.41447142 -0.8117824 -0.65299976 0.4373428 0.9805986
我们 0.16285568 -0.004226253 0.10946098 -0.7764533 0.6561125 0.086333446 0.5239526 -0.3557584 0.056163266 -0.10371571 0.2737519 -0.5172657 -0.1928247 0.33156323 0.69334435 -0.25113082 0.25763464 1.0771296 -0.14020525 -0.75210065 -0.24665 0.026805947 -0.50333047 0.99333906 0.052503005 -1.0790961 -0.28142563 0.6346406 0.18811938 0.52487427 0.12218667 0.12772472
都 -0.2125792 -1.0002384 -0.40498444 1.5344119 -0.41433534 0.48807108 -1.8471762 0.17290753 -0.26108316 -0.63667727 -0.65508246 0.20278251 -0.88575315 0.9727685 -0.68561864 -0.32835007 0.58957595 0.5114724 0.12165861 1.2320205 0.83184147 -0.87293065 0.27554202 0.6707707 -0.6522827 -0.56175375 -1.006903 1.0452588 -0.7651747 0.448377 -0.49127576 -0.24490322
没有 -0.07301468 0.14789912 1.2791371 0.5477748 1.0780464 0.09673727 -0.79570657 -0.11158107 1.0054526 -0.7145358 1.4905268 0.5439315 -1.3897716 -0.14609766 0.027081367 0.48925608 0.23631813 -0.72611797 -0.55531603 0.5842124 -0.50851214 -0.02245547 -0.2014307 -1.330494 -0.6662451 -0.29864207 1.4041138 0.025393305 -0.32725406 0.6559212 0.8100222 0.59419084
跟 1.5769353 0.74419016 1.8430688 -1.0867283 -2.175046 -0.53409606 0.4025893 0.79232496 0.35396504 1.3214359 0.53251785 0.2680721 -0.08119322 0.6131836 0.7046589 -0.20107614 0.5215074 1.2759948 0.89082754 0.49927512 -0.98916364 1.7114787 -2.7827716 -0.30940613 -0.67925316 1.036594 1.6983322 -0.26317823 0.31393164 -0.070847064 -0.6368797 0.9695775
法官 -2.1166127 0.79200554 -0.6637817 0.25470078 0.9882155 0.28195778 0.71541697 0.8580048 -1.6701542 -2.1968315 -1.0987227 0.6185005 -0.57964694 -0.72014266 1.8093988 -0.81405395 1.3912208 -0.41386265 -0.47694212 0.6086 -0.11297022 -0.48540893 -0.39894632 -0.923493 -0.34612235 0.9348572 -0.2817008 0.82679224 0.056277003 -1.6332402 -1.9058386 0.091413714
接触 -0.6778386 -1.8553866 -1.8312465 0.15738624 -0.81600666 1.2153836 0.07932118 1.8029231 -0.35381046 -0.46473223 -0.402691 -1.292765 0.025945853 -0.5653563 -1.1457599 1.7793168 -0.2824894 -0.361905 -0.5247124 -1.2883389 1.2907135 -0.27419606 0.21852677 -0.6758635 1.1191165 0.20852225 -0.007766781 0.34163007 -0.42778635 1.0280119 2.6609776 -0.20723248
过 1.5210356 -0.07316735 -0.71276414 0.774407 -0.78455853 1.3468016 -1.6483605 -0.9243959 1.0777627 1.308182 -1.3959109 -1.0165612 1.9610002 -0.7757873 -0.6895466 0.081047416 0.8668725 -0.04596685 -2.0240076 1.227624 -1.7439283 0.18305574 0.5766667 -1.0305349 -0.66534853 -0.8454278 -1.3676946 0.13193208 -0.13964997 0.31353006 0.30947465 -0.6430112
、 -0.27969137 1.2721542 -0.2771454 -0.24262697 0.8210157 -0.45647666 -0.9038605 0.46465975 0.035716806 -0.30956134 0.14706859 0.51960015 -0.7665331 -0.081859455 0.11972184 -0.28230888 0.040708695 -0.07515945 0.03781647 -0.66431487 0.0941309 0.15516639 0.532499 0.19028895 -0.35015473 0.49370393 0.7909481 -0.0009891215 -0.09022863 0.5761871 0.198195 0.0042627067
你 -1.0525173 0.5637414 0.95710623 0.3702735 -0.46500507 -0.12510541 -0.41163749 0.36962008 0.20171438 0.18937409 0.12955552 -0.42259842 -0.15367928 0.47822207 0.044046387 -0.34064597 0.30053717 0.14948522 -0.25275016 -0.6306313 -0.053687915 0.40878645 0.8485361 -0.43303475 -0.110140316 0.4922988 -0.027861292 -0.5694388 1.0136276 0.057141356 1.1679662 -0.015525646
只有 0.25246504 0.24130173 -0.17838882 2.1460555 1.1908015 -0.606258 1.6995384 -1.1265004 -0.44069752 1.365565 2.1200798 1.379821 -0.27528766 -0.23037066 2.1596897 -0.22353128 -0.72128767 1.0451106 1.3444647 -0.224105 0.85830355 0.706423 -0.72120214 -0.058129538 -0.3192815 -0.14077865 -0.3161547 -0.62569433 -0.8657135 0.031794958 -0.9768174 -0.08596205
把 -0.5028271 -1.4422641 -0.8689013 -0.40719047 -0.026443332 -0.06924568 -0.3621044 0.11521289 -1.0839295 1.647414 -2.0226796 -0.5183582 0.97796047 -0.62783617 -1.3391374 0.060019225 -0.60457015 -0.7862032 1.7603874 1.0257767 -0.28269768 0.66505647 0.8100222 -0.66476816 -3.3816814 -1.9550195 0.19402134 -0.44731814 1.399885 -0.1997301 -0.44080117 -1.4759862
事情 2.2361374 1.5660576 1.2410936 0.71035826 1.2006016 0.7356653 1.5300616 -0.5681815 -2.5767174 -0.56570214 1.1397104 -0.47912076 2.1672876 1.1583474 0.8576395 -0.80261356 -0.18944977 -0.36145055 0.42072576 1.2437041 -0.10376475 0.11788652 0.44111684 0.7026305 0.44802207 -0.75303406 0.6285425 0.6807997 0.081839465 0.8100143 -1.0015339 1.0061274
大伙 -0.41614825 1.467853 -0.14829597 -2.0745642 0.7667995 0.4995018 0.6021087 -0.50496536 1.0552176 0.55458814 -0.3278889 -0.00059411227 -0.05777666 -0.788186 -0.28437144 -0.67473924 1.5152669 -2.2627034 -2.1638148 0.31669953 0.76149464 -0.14797412 -0.047308616 -0.07828856 -0.66661125 -1.2384381 -0.09688047 0.35201535 0.6064682 -0.08726196 1.1747406 0.85334736
才 1.7051355 -0.52281374 -0.3104234 -1.6100019 1.2842731 0.09219533 0.1157856 0.16287349 0.63045603 -0.5445568 -0.5937423 0.23608778 -0.06565457 0.68390316 -1.1618642 1.2650833 0.35162374 -1.7874341 0.44217953 -0.69881403 -0.91882414 0.17325094 0.30111283 -0.13783723 -0.1816282 0.7211277 -0.540094 -0.750681 -1.4151902 0.3891738 -0.049688518 -1.3008914
条件 -0.9003415 1.4982201 0.072807364 -1.3288832 -0.70693284 0.9759388 1.3845538 -1.4911008 -0.8567363 1.2553573 0.26138866 0.014279413 0.38902533 0.56685716 -0.032449126 -0.5679859 0.32263282 -0.033634085 -1.2101172 -0.61865455 -0.7253765 -0.45144674 -1.1039594 -2.4088824 -0.5449671 -1.5577458 0.8689534 -0.39304078 -1.3910804 -0.38015112 0.8981371 -1.1317797
虽 0.051721297 -0.43163997 -0.1255664 -0.25455475 -0.2619207 -1.8919433 -1.2194606 -0.3389254 0.8119565 -0.4249733 0.15522401 0.30774134 0.57855535 1.9098414 -0.4508161 -0.031557012 -1.699098 -0.99915534 1.921576 -0.046272032 0.17118417 1.0996873 -0.20621875 -0.89445674 0.6835808 1.5111771 0.957543 -1.1184825 -0.7804616 -0.29988497 0.52118415 -1.2268484
可 0.5649393 0.013091029 -0.057382546 0.0462955 -0.1224971 0.21730399 -1.1243926 0.18331957 -0.8652266 -0.48226053 -0.65964735 -1.486938 0.56066257 1.8247442 0.72838366 -1.1237537 1.424476 -1.3216805 -0.22443588 0.47190696 0.28120947 1.4249395 0.63859546 0.78595835 -0.8581552 -1.2340693 0.72196066 0.8005524 0.58131516 -0.9209194 0.18628508 -0.43686622
大家 0.7445235 0.03187556 0.71194965 -0.05011677 0.11623578 0.76170164 -2.1054716 -0.5664167 -1.8970978 -1.1741234 0.77524704 -1.8997619 1.5883074 2.4240637 -0.12416521 0.2843892 0.8245746 -0.3091894 0.677659 2.5365922 -0.67959154 0.09798122 0.9631431 -0.2475302 0.5483597 0.5757985 -1.4692419 2.4265943 0.43947154 0.56115776 0.35337657 0.28326255
呢 0.53109306 0.017526532 -0.12896474 -0.3563854 -1.8099146 1.085943 1.0742571 -1.6306597 0.97914654 -0.9868367 -1.9745555 1.3905672 0.19378014 1.0061774 0.44359544 -0.0350563 0.9925845 0.6457069 -0.6958025 0.5065337 -0.7373566 -0.8618384 -0.17682771 0.9316182 -0.84060395 -0.59025943 -1.2545365 0.054225642 -0.32626235 1.6515254 0.07067728 -0.82901984
什么 -0.6354743 0.579497 0.18017258 -0.93840724 0.7456233 0.905909 0.75200623 0.23739126 -0.5616394 -0.22003633 -0.48011443 -1.3876535 0.72135025 2.8650424 -1.0547557 0.32381544 0.05358279 0.13304079 1.0418682 -0.7447677 -0.26339018 -0.62619656 -0.9063619 -0.2587398 -1.2160064 1.0308841 -0.9435462 0.71865463 0.39335802 -0.44375256 1.9947308 1.1048265
活 -0.74591017 1.1216352 -0.11983077 1.2037379 0.11034883 -1.5852927 -1.2690815 1.2470622 0.6821051 0.31081587 -0.7613473 -0.7397351 -0.10507169 -0.47831032 -2.1301637 -0.033190336 -0.70489097 -0.6060005 0.06539643 1.4080838 1.0382359 -0.2329819 0.28625825 0.10938744 1.1141905 0.5127243 -0.27273798 0.42412716 -1.049883 -2.234835 0.72336394 -1.4807894
着 -0.622152 -0.42695418 -0.7134134 0.048348613 0.066431135 -0.95017874 -0.5301618 0.44664553 -0.25871044 -0.62422055 0.073639296 0.5512605 0.7931779 0.68588907 -0.6211927 0.14776337 0.60789764 0.079532996 1.2666322 -0.046788406 -0.58634865 -0.733871 2.08488 -0.41719076 0.9021817 -1.1973184 0.42086747 -0.3665429 0.004308073 -1.1008688 0.36288768 1.0469465
干 -1.3473514 0.1617815 0.07657136 -1.3755472 0.83532286 0.5398139 -0.6450325 0.7274915 0.5561437 -1.9414581 0.6669527 1.6981268 0.03753498 -0.33733281 0.32579955 0.73944 -0.9109337 0.7318391 -1.2358805 0.78225887 1.2326621 0.037967272 -0.69839466 -0.03498441 -0.5029462 -0.6041291 0.2173385 -0.60741806 -0.9528227 0.8667889 0.37179357 0.896315
谁 -0.94477314 -0.8706558 0.9760155 0.98993886 -0.5327409 0.41970497 -0.13181694 -0.33413026 -1.184434 -0.19476493 -1.0120293 0.50694585 0.050601866 0.19801956 0.006653107 -0.63085324 -0.3028348 0.22045882 0.82684064 0.63552976 0.46506837 1.7280197 1.0463613 -0.2766971 0.14470287 -2.2044826 0.4198215 -2.1802526 0.90580434 -0.39756626 2.0773003 0.74135244
争 -1.5086837 0.6174601 -0.5983177 -1.8414831 -0.21980666 0.020930003 0.051640905 -0.37860894 -1.3479298 0.61023283 -2.108998 0.3784717 2.424835 0.089145206 -1.1445335 0.762128 0.770743 0.33034876 -0.75666475 0.45773792 0.93171084 0.3895378 0.28744602 -1.8343991 1.804287 -1.2189682 1.1968999 -0.9223575 -0.4995549 0.83965003 -0.22153038 -0.16432478
多 0.12673894 0.14210215 1.0385144 1.8803022 -0.039326724 -1.5628065 1.333678 2.3420486 -0.41183412 1.5121207 -1.3537835 -0.42022103 0.49106252 1.2089458 -1.1368136 -1.528794 -1.55575 1.2598586 0.53903574 0.8170342 0.17483592 -0.22460888 -0.78792363 -0.25749284 0.67381597 0.79927856 0.062237605 -0.11125405 0.77292687 -1.255806 0.81462824 0.45414907
作 1.0212736 -1.4575301 -0.83453333 -1.6983101 1.5026602 -0.24932835 0.1287681 0.19735679 0.6177278 1.3372915 0.5306669 -1.2097859 -0.59457964 -1.7893184 0.24593127 0.778651 -0.040545736 0.31549877 -0.33592445 -0.5390469 -0.9269722 -0.6144133 0.6663594 1.7453895 -1.9004747 1.214287 1.319284 0.60756934 -0.4732009 1.3186923 -0.090113975 0.29871875
贡献 0.13478556 -0.505028 1.3679522 0.8509794 0.78633213 -0.4752353 -0.15214866 0.07368411 0.7144352 0.36104575 0.16197944 0.92235845 0.43416828 -2.2044532 0.32359833 -1.442883 0.23855896 -0.27309972 -0.72507983 -1.4170464 -0.4214181 0.17625032 -1.3983303 0.008674033 -0.6945566 -0.8914102 1.0694566 1.6486173 -0.8991709 -1.7520524 0.24191786 -1.7398951
怎么 -0.40213865 -1.6422373 0.3425025 -0.58719426 -0.6695511 -0.2778005 0.84415627 0.21741736 0.4950344 0.30353555 0.9199082 -0.003844665 0.2933908 -0.41660893 -0.9604326 0.62954456 0.038385775 -1.0337658 0.6719216 -0.6624615 -0.8369587 -0.28387982 0.19565067 0.63058525 -1.6418087 -0.54807776 0.005862849 0.40863663 1.0008794 1.3405055 1.0753583 0.33520758
来 0.8114839 0.019633988 -0.23769623 0.17786685 -0.7867887 -0.63668895 0.045026395 -0.82787067 -2.764546 0.2698747 2.1756792 -0.23655121 0.12834135 -0.5537407 -0.32005993 1.1154271 -0.31608057 -1.0027314 0.44790676 0.28887993 -0.3364319 -0.41854963 2.6559663 -0.023135215 -0.48812473 -0.3996719 0.5729659 -0.42319438 0.44686 0.22156529 -1.5854185 1.1444303
告诉 1.1326877 -0.100607514 -0.72685546 -0.6487499 0.04520033 0.21221414 -0.50930506 -0.42398152 -0.6000156 -0.40970764 -1.4772632 1.3549898 0.41345674 1.6892561 -1.1804211 -0.54696846 0.62475854 -0.032056484 -1.747851 -0.75881165 1.406951 0.3841564 -1.3810238 -1.947772 0.24710517 2.455908 0.298097 -0.34547502 0.87038934 0.78027654 0.40598354 0.9760598
声 0.0075297123 0.08460482 -0.2533081 0.76089466 0.54249156 -0.124268346 -1.3538725 -0.3974161 1.3445904 1.2496159 -1.3476478 0.90107757 -1.101099 -1.1104378 -0.65716106 1.8575355 -0.8767335 -0.0374737 -0.2817163 -2.021214 0.25421026 0.36757514 -0.23408245 -1.2051691 -0.8052614 0.5002282 0.105551176 1.6808441 -0.12630495 -0.18652909 -0.8082949 0.035977926
那 0.4799653 -0.33775035 1.2532123 0.4815163 0.9721293 0.17809288 0.12887798 -0.06367361 -1.7603714 -0.25484496 -0.6314658 0.4555095 -1.893552 0.34014997 1.425479 -0.29315454 0.23364033 0.51723135 0.34147716 0.09578789 -1.0509703 1.8470259 1.0971439 -0.92640185 0.80469066 0.09888453 -0.13674831 0.84502363 0.6689376 1.2172037 1.5567838 -0.70318294
累 0.8163371 1.0814915 0.96392775 -1.0587589 -0.9969109 0.18598345 1.5798436 -1.3190163 -0.46339855 0.71170384 0.5261652 0.5041312 0.20399444 -1.0996573 -0.29042476 -1.4343507 0.3298012 -0.26095614 0.5742059 1.1794561 0.47360367 -0.112631954 0.055673577 -0.5336495 -0.39266986 0.97674656 -1.6998124 0.7941386 -0.2089434 -1.1616224 -0.17183438 -0.57859224
时候 -0.76905394 -0.3041776 0.599581 -0.46422166 2.0475004 -0.7995503 1.0030488 0.12150419 -0.92920464 0.67624956 0.34674177 -0.24652748 0.4886689 0.28017578 0.57041395 -0.17260306 -0.3169398 1.0700132 1.1819556 0.3226623 1.5160199 1.924266 -0.10174338 -1.0017884 -0.38195443 -0.72767085 -1.026228 0.18456474 0.9949102 0.76742697 0.5960419 0.6885001
； -0.76082003 -0.9617674 0.3702575 -0.32855326 0.011171205 0.45478722 1.8354707 -1.2052987 0.42596155 1.505368 0.2365655 0.45855832 -0.4702296 -0.50386435 -2.2708743 -0.16079396 -0.59078467 0.48150918 -2.4113407 0.12236953 -1.2180785 -0.80968016 -0.0021603792 -1.1481518 0.4464332 0.2659385 -1.2330194 0.2528774 0.4704599 -0.6209253 -2.4317725 1.3033957
另外 0.3109079 0.06873226 0.071692 1.2514176 0.4373348 0.12519336 0.5689261 0.3240512 -0.49770117 -0.3805145 -0.17202191 -0.17107713 0.4790621 1.1860139 0.540437 -0.5092817 1.5642633 -1.3627685 -0.12991461 0.6033107 -2.7322993 0.43413004 0.10677071 1.4882843 0.68234235 1.6630064 -0.5731392 -0.40400502 0.99581206 0.16081512 -0.58846825 -0.03189963
大 -0.28151208 0.031583972 -0.41203353 -0.435285 -0.023554327 1.3683443 1.1032838 0.11689171 0.15255511 -0.99755406 -0.00010830563 0.6625576 1.3009022 -0.13776489 0.61089 0.20110777 -1.8027828 -0.5146341 -0.5516789 0.115844965 -0.4055839 -0.13904801 -1.4853545 0.93711567 -0.20621188 0.049810614 1.4133775 0.8119518 1.0773631 -0.52651274 1.0046201 -1.4143844
在 0.65850794 -0.20466974 -0.48636684 0.3594613 0.0689731 0.4208395 0.05820079 0.433171 -0.7350008 -0.41914448 -0.112713225 0.8955204 0.006461178 -0.41311577 -0.84229845 0.9151586 -0.55511206 -0.32028317 1.084182 -0.22379327 -0.8968766 0.26372793 -0.14674596 -0.08115985 -0.6545621 -0.650089 0.7442063 0.5830324 0.6871925 -1.1035355 0.9321448 -0.85851085
种田 -1.8614011 1.4548149 1.6326792 -0.93704224 1.1102153 0.4204314 2.0015514 -0.9939696 0.34535012 0.5728202 -0.40757865 0.46053666 -1.1535118 0.7650484 1.1356901 0.55151534 0.13159434 0.45283484 -0.95850533 -0.5454103 -1.5316073 0.31783444 -0.3159702 -0.2032741 -0.4252646 1.2295251 -0.6899708 0.6476569 -0.96427643 1.8367348 0.015542359 0.36421534
要 -0.37437618 0.7822266 -0.76247406 -0.4465551 0.5051487 0.7546648 -1.5694958 1.0303025 0.040786784 0.23302062 -0.7692109 -0.7847476 0.42062792 0.41073093 -0.5151135 -0.038770705 -0.23632881 0.37192354 -0.12855229 -0.006739075 0.16135721 -0.014445985 -1.0448027 -0.05497185 -0.13507275 0.097753 -0.6277892 0.3527635 0.76480025 1.1757447 -0.5063801 -0.45908958
明白 0.12759389 0.20813136 2.0510957 0.19119139 -1.0768113 1.0688814 -1.1434755 0.7183491 -0.8159706 1.2766782 -0.41437265 -1.1239289 0.5548335 -0.47516122 -0.18025614 -1.5632186 -0.035851765 -2.0825489 1.6677183 -0.46025917 -0.21131094 0.86032426 -0.3672878 1.3510772 -0.3757651 0.8853821 -2.0934393 -0.0208636 0.23771988 0.26663938 -0.54862225 0.36709672
账 0.80055815 -0.514844 0.44774234 -0.7953233 0.62103254 1.3639048 -1.1121815 0.17836311 0.8577645 1.1550177 0.49715853 -1.1720389 1.1540855 1.2746738 -1.4226248 -0.4155295 0.89721006 0.02207096 0.6932594 1.0774822 -1.5923592 0.4462206 1.1603011 0.25164855 -0.15007181 0.06789862 1.0796355 -1.2708008 1.3321707 -1.1632226 1.5397819 -0.21069887
本 1.0849295 -0.7234798 0.19027142 -0.44840991 0.7217425 1.4161668 -0.86613786 -0.33570686 -2.4428928 1.1886961 2.1061633 -0.29291445 0.58969027 0.38286343 -1.4782367 -0.6279122 1.1537757 0.45025632 -0.27317005 0.37186658 1.0740325 0.3934467 1.4198695 1.0485859 -0.99556184 0.92652154 0.4071908 0.3361902 -2.567501 0.07363459 0.34480497 1.8271081
成长 -0.7537397 -1.3958824 1.4025367 -1.9940358 0.05895464 -0.5552374 -0.54776514 -1.4573141 -2.04274 -1.0883583 1.2069712 -0.53310645 0.7708863 0.41514283 0.30854484 -0.16985762 0.24951392 -1.7936958 0.37309402 -0.32951564 0.21721762 -0.078568146 -1.323446 -1.6961222 -0.24281769 -1.3965224 -0.7094176 1.4193416 1.9094542 -1.4851366 -1.4025261 0.17498256
传统 -0.14475954 0.030243287 0.626582 1.0381789 -1.1739922 0.63023967 0.06401082 -0.8741961 0.4102951 1.4208333 -1.7351468 -0.027553862 -0.67186785 -1.4790117 0.08907954 -0.54239124 -1.0673229 -0.6419331 -1.3417389 -1.3063986 0.53603745 -1.4689691 1.4504312 1.4683117 -0.21419083 -0.045987733 0.039494056 -0.5955383 0.9944372 0.5637792 0.71802235 1.9715142
曾 0.35238147 1.9756813 -0.61169463 1.050158 1.0996786 -1.7616743 0.81260705 -0.091398 -0.010677367 0.29826853 -0.30365032 -0.32246065 -0.5378827 1.5950258 1.4067802 -0.51501566 2.044741 -0.17774521 0.830198 -0.4426537 -0.63473046 1.1557608 -1.6257147 0.8814243 0.22396064 0.70353085 0.61562777 0.4457142 -1.409822 0.6534854 0.24623667 0.045556694
经历 -0.5701668 -0.4587414 0.42943314 0.13704161 0.790137 1.7917538 1.4236261 -0.94063675 -0.02888591 0.2894759 -0.7275551 0.70659107 -0.9955724 0.20431793 1.4654403 -0.96109605 -0.6258089 -0.24943256 -2.2612896 1.5485343 0.44984177 0.16996816 -0.08633274 0.21876526 0.486068 1.2611352 0.44252607 -0.524629 2.9632502 -0.8160163 -0.84111243 -1.0452304
为什么 1.1720742 -0.6985362 -1.1009079 0.7682727 -0.6435052 -1.3867505 0.85199815 -0.3634842 -0.7568509 -0.54152805 -1.1081966 -0.070830554 0.11296774 2.1878583 -2.027486 0.3774791 -0.6338498 0.6161598 -3.058161 -1.3483769 -0.27207422 1.148802 -0.7691963 -0.040214993 -0.7590694 0.54108304 0.42452726 0.91194165 1.000739 -0.2627342 -0.9591735 -0.6613427
上 0.36261314 -0.076778606 -0.1966225 0.38869703 0.61561096 -0.21896933 -0.159554 -0.67585605 -0.31158072 -0.97457343 -1.2738752 -1.3108898 -0.3172738 -0.67925316 -0.2349837 -0.8582373 0.40697798 -0.98319733 -0.63772327 -0.39035264 -0.21358578 -0.22564083 0.08961318 -0.25457308 -0.3807368 0.48830622 -0.93159723 0.36643934 -0.38377535 0.34253582 0.43991667 1.4140707
话 -2.493148 1.2508209 -0.5714304 0.3459414 -0.03277495 -0.089454986 1.0053813 -0.78834516 -2.1962972 0.30968526 0.38150468 -1.1645402 0.006263848 1.0810461 -1.6713448 -0.89425087 1.508801 0.13043764 -1.1250731 -0.9627238 -0.38936025 -0.77069575 0.011625491 -1.1315309 0.5139143 -0.1413147 -1.449378 -0.2970335 1.3381835 -1.9055456 0.31055152 -0.81363165
敢 -1.5354967 0.056761894 -0.7787823 0.6100635 0.6135576 -0.20282805 -1.6555144 0.849743 -1.5931901 -0.55239487 0.49196082 -1.1879545 -1.1875042 -1.1188422 1.5908309 -0.43650934 -0.32646918 1.1063727 -1.2820414 -1.2254053 -0.06330979 1.2398415 -0.068518564 -1.4087657 -0.61572415 0.94792545 0.22537962 -1.4461733 -0.40372008 -0.4817652 -0.64601606 -0.98137075
讲 0.42387062 -0.07592252 -0.42158282 -0.51512593 -0.55121744 1.3842819 0.060370393 -0.15578373 1.5542686 -0.14096573 -1.6897198 0.7955511 -1.4465504 0.11311867 0.980311 -1.8062215 0.5635187 -0.2854849 1.4139841 0.8026222 -1.2657125 0.07124794 0.33600387 -0.7048861 1.4663682 0.1570485 0.45105234 -0.7694312 2.687892 -0.1185196 0.8240147 0.022615712
到 -0.4360153 1.7656772 1.6434885 1.7672272 -0.43751663 -0.6852618 -0.08138275 1.1105579 0.04031858 0.8675279 0.9527864 0.26448792 -0.45610645 1.5464327 0.38194448 0.029282764 0.7295133 -1.1907781 0.43327945 -0.9052508 -1.154793 1.1330209 -0.90599275 -0.42755565 -0.27068424 0.37696013 0.6930495 -1.1887923 0.6786142 1.0862964 -0.5422584 0.574831
单位 0.40466526 -0.81524426 -0.7557227 0.48356307 -0.14950868 2.6010115 0.6901609 -0.6215917 0.6880224 0.068951435 -0.14281225 0.6544085 -1.2812129 0.9590727 -0.19081603 -0.41743246 0.76044154 -0.42492998 -1.5506275 -1.604083 0.3592388 0.39764792 -1.2644312 0.60389817 0.78500813 0.76171523 -0.19788153 1.12389 0.5032078 0.8931381 -1.4861484 -0.8482406
就 1.5526781 0.7203333 -1.0896953 -0.11995872 1.2562708 0.28002924 0.7301459 -0.2738716 -1.0911008 0.1020152 0.4154106 0.31259388 -0.13550934 1.886061 1.1484531 -0.46874568 0.41455582 0.38707095 0.6468066 1.258359 -0.8547341 -0.46101633 1.5618739 0.2527767 0.733019 -1.0023055 -0.036848463 0.9750676 -0.09926714 1.6080174 -0.38844192 -0.12185701
里 -0.16636115 -0.9171887 -0.9541507 1.0873946 -0.6361318 -0.76732814 0.5096182 -0.059378546 1.6980416 -1.1628215 0.04621492 2.1582475 0.3973324 -0.5792136 0.6925786 -0.22814599 0.38786903 0.052181788 0.13864014 -0.010095042 1.125216 1.7254264 -0.3201128 -1.1941549 -0.15137751 0.98769075 -0.46517923 -0.21856849 0.25673783 1.66556 -2.2904496 -0.2995921
但 -0.00022974907 -0.37764698 -1.8728939 0.050054085 -0.85495394 -0.11930717 1.6789011 0.4316323 -0.5267127 0.07611912 -0.24982561 -1.1358668 0.71676844 0.17294258 -1.281757 0.34809297 1.3985872 -0.6513099 0.8713991 -0.9509289 -1.1762093 -0.112150714 -2.177852 0.056586467 -0.66595113 0.72600794 -0.109507 -1.3480502 0.19151342 -0.24340202 0.17747411 0.74179447
不要 -0.5203106 0.7960899 1.058852 -2.6205773 0.65154564 -0.2610157 0.570291 -0.5962645 1.5560428 -1.6171774 -0.061769545 -0.21187578 1.0013751 -0.6121099 -0.38087612 -1.6449735 -0.39233145 0.16409484 -0.7217647 -0.4718711 1.1746905 -0.6621156 -1.3716811 2.0675416 -0.74720645 0.085061826 0.25379816 0.5420154 -2.339673 0.333027 0.23434189 -0.6417499
让 -1.1878792 -0.17241658 0.6137525 0.051120467 0.3329035 -0.8787408 -1.1752232 -0.3528417 -0.034057584 -1.4410762 0.10356642 1.6114854 -1.0756342 -0.073064804 0.20753601 -0.09491058 -0.4931121 0.2416189 0.93206036 -0.49566236 -0.43313906 0.3567908 -0.14847887 0.65035933 0.5638699 -2.1454518 0.38568276 0.6204451 1.586582 0.04451985 -0.9368533 0.8004065
共同 -0.9444448 1.1032456 -1.5169737 1.6984314 -0.35439888 2.264241 -0.5232307 -0.056633364 -1.1771195 -0.04240365 -2.0312304 0.13810974 0.5794226 -0.50514156 0.7996848 0.9487502 0.026825588 0.16504772 0.6926637 0.037663557 0.84426653 1.9988059 -0.3494087 -0.9313949 -0.48372447 -0.6951251 0.23435847 -1.3264343 1.3204529 -1.7781115 1.7685633 -0.7160113
！ 0.74010044 0.13181591 -1.1650403 -0.24209033 -1.4163847 -0.7538571 0.084338084 -0.49357864 0.5839838 1.4560739 0.035219125 0.24996786 0.12880562 0.9358573 -0.6782583 -0.010367785 0.3203052 0.30487007 -0.029672999 0.6327268 -0.3160767 -0.8854453 0.44564715 0.34812087 -0.17339431 0.60152906 0.14793296 0.49466413 -0.20053233 -0.43752292 0.39299467 -0.8353815
现代化 0.8696903 0.22216877 -0.3959125 -0.1781247 0.73939425 1.4359698 -0.8789712 -0.20882513 -1.3195561 -0.0046589114 1.0054456 -0.7965588 -0.3010235 -0.105458304 0.45180997 -0.4692033 -0.17288335 0.91904193 0.9251739 -0.64852387 -0.31056342 -0.88565785 -0.18161204 1.0244843 0.13087052 -0.41373754 0.16833949 1.1627148 -0.52164274 -0.84519935 -1.4857112 1.654301
技术 -1.3123215 -0.06173974 -0.58884853 0.91545993 0.1533643 0.19648539 0.34462228 1.0250533 -1.0393447 0.22912775 0.048265573 0.50483185 0.028257359 0.19874354 0.017638184 -1.8473108 0.4947462 0.23675954 -0.29270372 -1.2727157 -0.13526979 -0.44082296 1.6077948 0.7909878 0.6357664 -0.8740594 0.10669578 0.104990005 -0.95802736 0.33826032 -0.8476159 -2.0243034
简单 0.51132345 0.6632687 0.015632898 1.3566107 0.0014381806 -0.07343414 -0.27763605 -0.13325872 0.31442428 -0.24042532 -0.0843582 -0.49090052 0.51504296 0.3994862 0.57819206 -1.5665839e-05 -0.48765486 0.4302742 -0.5474837 -0.40881616 0.48550913 1.3111085 -0.77400374 -0.4760915 0.18614712 1.1929389 0.23460147 1.2126714 2.4239683 0.119186826 1.7814406 -0.21702945
岗位 0.9231083 0.06624082 -1.9927928 -1.0779095 -0.14712669 -1.0782065 0.8922898 -0.17866537 0.31848398 -0.24238129 0.109720156 -1.6857321 0.6536156 -0.6378659 -1.6054922 0.15312928 -0.3631681 -0.078643955 -0.26880014 -1.6921694 0.27300182 -0.3778253 -1.3582093 -0.85697913 0.8402036 0.18608066 0.95495653 -0.6900383 -0.0058602137 -1.0502434 1.4252613 0.3543136
当时 0.8207621 0.49635246 0.52177435 -0.052568108 -0.6010255 0.16610928 -0.72884256 -1.0332413 0.7240525 1.6216596 0.35449332 0.26300302 0.021049859 0.55969954 -0.020393258 -1.7821376 0.239369 0.7445537 0.7570454 -0.59389174 -0.45356792 2.169382 -1.8277924 -1.352266 -1.007075 1.3620558 1.1563445 -2.7465043 -1.0099756 -0.767555 0.80755216 0.8690313
很 -0.96767354 0.660284 -1.8779875 0.44493592 -0.53230846 0.47205722 0.7877066 -0.07754934 1.0741835 -0.7359702 -1.496431 -0.6081472 0.5098866 0.8968102 1.0397259 0.34339872 0.13298905 0.8094562 0.74234086 -0.00018566272 -0.42439407 -0.44808134 0.60072035 0.6685807 -0.20400092 1.1769068 -0.98193955 0.463971 -1.9875176 1.0891942 -1.2091494 0.2978998
认为 0.9982195 -0.0038942525 0.06183075 -0.79373866 -0.7501165 -0.602777 1.8543993 -0.46597382 -0.10678731 0.9088781 0.610545 0.15497029 0.4773383 -1.0236323 -0.4932553 -0.8090004 -0.40149665 -0.14973661 -0.92483103 0.27976766 -0.00082151155 -1.9699388 1.1143119 -0.7146185 0.10186034 0.8896649 0.30186185 -0.087521285 1.4354583 -1.0701762 1.1876945 0.8752308
辈子 0.7830173 0.40529773 -0.99307454 0.020764709 0.66850454 1.249265 0.7950943 -0.85688317 0.8997968 0.23321407 0.9259879 0.43685797 -0.46785066 1.5183493 -2.4032588 -0.5483074 -0.39219078 -0.60841984 1.7087524 0.4036563 0.600924 0.4494098 0.27665055 1.4381281 0.7818689 2.0242517 0.10576679 -1.0528448 -0.054420803 -0.760011 1.384717 -1.7575883
算 0.7024523 1.4590503 -1.7379818 0.094495684 0.14500187 -0.65617126 -0.5446978 2.0700884 -0.6451064 -0.79800946 0.019903624 0.43057296 1.3643739 -1.3890024 0.4563546 -1.4464337 -1.9427257 0.81508 -0.0008918167 -0.36484092 -0.89835465 -0.38788188 -0.07010444 0.7598455 -0.9398379 0.86840904 -0.41788447 -1.472076 2.2508655 0.88150823 0.7107523 -0.60737544
完了 -0.64644676 -1.3868502 0.514369 -1.3491389 -2.75391 0.525525 0.31784242 1.4337864 1.6419201 0.14080341 0.9896977 0.13738464 -0.45648378 1.3653984 -0.71581745 -0.33564347 0.44495583 -0.15249191 -0.43354258 -0.9444132 0.85478634 -1.0838448 0.50346065 -0.61847097 -0.07195127 1.3684661 -0.36504173 -0.3135209 -1.3642219 -0.3542398 -1.3165814 -0.6156931
孩子 1.7279147 -0.42832398 1.4194565 0.3757982 -0.26344898 0.11231005 -1.4082901 1.3326111 0.21841195 -0.9609059 0.026179714 3.0402372 -0.75762707 -0.769624 1.2198728 -0.64931965 0.3146967 0.20696533 0.12431322 0.858124 -1.1898739 1.2947873 1.0198998 -0.5176902 -3.208362 1.9818277 0.16154157 0.009405625 0.048892647 -1.5968554 0.06792143 1.2366763
还 -0.22735856 0.99849373 1.2537355 -0.35256407 -0.47019893 0.55209595 -0.8772435 0.2940456 1.5954943 0.21303597 0.24738431 0.15218608 2.5840914 -0.35647205 -0.12882204 -0.17485003 -0.83466 0.20961586 -2.2930927 -0.06879001 -0.34779727 -1.3672882 -0.10535051 -0.3303819 -0.1920558 1.3044206 -0.6777761 0.6198404 -0.4358958 1.3042494 0.70741254 0.83925474
不错 -0.97062546 -1.3084451 0.0035405909 -0.41320798 0.105645515 1.5855031 -0.43684068 -0.15495576 -1.0265714 -0.97293425 0.28273684 -0.33792704 -0.17602628 -0.08659782 -1.9543016 0.11372584 -0.6844107 0.80666953 -1.1718806 -0.9318925 -0.962265 0.30293307 1.1524234 -0.17175682 -0.17815757 -0.09721771 -0.112377 0.5762256 1.7279292 0.025575258 0.3716229 -0.8905155
学习 -0.31796357 1.0855904 0.76427275 1.4746244 -0.9357138 -1.1943028 0.27746937 -2.0780907 0.5265231 -1.1887431 0.36637703 -0.41423735 1.6337155 0.106776856 -1.4157686 -0.48935062 -0.88980865 -0.7826607 0.63049626 0.29599506 -0.47987023 0.8134075 0.6015104 0.14950302 2.0503392 0.054770865 0.2301285 2.3109312 0.3586089 1.5991693 -2.668861 -1.8021852
成绩 0.8932498 0.17628455 2.7817185 0.45568806 -1.9451139 -1.4899106 -0.68423253 0.16449928 -0.23569806 1.0243123 -0.3619803 1.0078827 -1.238334 -2.0232782 0.57162446 -0.14065078 -0.22719808 -0.48051408 -0.928879 -0.6933998 -0.982108 -0.7292421 -0.9895053 -1.7660477 0.25624025 0.65039194 0.40650573 -1.9051656 1.2769626 -1.6742797 -1.2153639 -1.6012944
一般 -0.77220976 -1.2223582 1.1739783 0.88743055 -0.2962296 1.5199177 -1.4976865 -1.1631885 -2.0175154 -0.09565248 1.3723785 0.18968499 -0.2157377 -0.9506148 0.39109668 1.92728 0.005746321 0.29148248 -1.1395404 -0.23104435 -0.23293093 -0.62581325 0.51196253 -0.8667337 -1.6523666 0.66608775 0.81255585 -0.3287447 0.19661012 -0.0029860977 -0.923834 1.156401
较多 0.25508076 -2.1193929 1.1742542 -0.33441797 -0.4688051 0.04098681 -0.67851764 1.3073866 -1.6368229 0.32417503 -0.8362034 0.9654166 -0.38997105 0.6242736 -0.71955633 -0.646479 -1.3611832 1.1848004 -0.52528185 0.39976022 -0.472221 -0.33385664 0.16914648 0.5799938 0.6523165 0.38276047 0.6195941 -0.17917098 -0.28181213 0.23963703 -1.932341 -0.5213611
老师 -0.1370596 0.53692544 1.2094431 0.14389135 -0.17339236 1.537893 0.10691945 0.30425793 -2.0505638 -0.075277515 0.08935476 0.41389072 0.5394557 -1.2697976 -0.45495245 -0.676699 -1.75232 0.85876095 -1.338915 -0.76098645 1.1646829 0.24083318 -0.6251556 -0.19564652 0.60867184 -0.2948961 1.4102446 -0.7614572 -0.30034328 -0.9051066 1.4038345 1.5445977
不是 -1.0485896 -0.17742312 0.6899283 1.4965355 0.019475508 0.3834896 0.40709773 2.170691 0.32377777 0.92056257 0.7216942 -0.092592835 -1.3157027 0.7097686 0.15106076 -0.7609342 1.3148853 0.9786978 0.47540972 1.3593229 0.3986567 0.6023485 0.33047828 0.0523793 0.26111844 -0.27604643 -0.20876357 0.7721386 -0.16736643 1.6849701 -0.023364292 -0.29595733
特别 0.9205248 1.1138996 -0.25800338 -2.1403866 0.23950927 -1.5329776 -0.06342191 1.2324325 -1.425328 1.4674482 -1.31625 1.5603126 -0.3272979 0.23599474 -0.9657834 -0.18866456 0.31129172 -0.062977485 -1.732166 -0.6385157 1.3975396 0.9423847 0.65447664 -1.8736056 -0.752355 0.21726249 -1.8275028 -0.1623813 -0.00041739992 -1.4197198 0.82404757 -0.54648805
喜欢 1.324023 0.3477477 1.2820756 1.2018619 0.8993131 0.47331753 0.57134926 0.09573818 -1.0090554 2.0219567 0.6549146 -0.95618325 0.3581872 -1.0236576 0.055889986 2.1417727 0.739358 -1.5883058 -0.7323365 -1.2169684 1.3228618 -1.1224563 1.4610865 1.4759223 -0.33927685 2.186182 0.7944155 -1.9472724 -0.47960734 2.6254258 1.1755782 1.1994039
素 -0.60079694 -1.0352672 -0.6172334 -0.34198684 0.6914054 -1.3312751 -0.40099496 2.996276 0.42709368 -0.69637495 -0.9044224 0.8863006 -0.5317974 -0.0016239213 -0.14092676 0.49654222 -1.0810945 0.85944986 0.81201434 -0.92680216 -1.8834243 0.48284885 1.6561869 -0.103584945 -0.6316655 1.1508985 0.8613972 0.57635254 -0.68833995 2.0788667 0.9017549 -1.0047474
— 0.7162771 0.1393484 1.2868947 -0.16078109 -0.4316239 -1.2172323 -0.6053697 0.6294302 1.7187893 0.79549235 -1.1711735 0.31782576 1.8657116 -0.9210892 -0.1260349 -2.0450332 0.45682868 -1.2079326 -0.9492575 -1.4432487 -0.40921727 0.82611597 0.36254507 -1.582114 -1.6713448 0.18926257 -1.5820053 -0.4320766 -0.9123295 -0.4358626 0.89073586 -0.80819887
人类 0.69541967 -0.019510046 -0.1958466 1.0194485 -1.9264615 0.6434942 1.3505517 -0.20907387 0.79606694 -0.13944058 -0.07868307 0.29200163 0.1130974 0.09006901 -0.5989153 -1.7203488 -0.5174356 -0.78153425 1.9801755 -2.5822458 1.0379822 -0.5531814 2.4558182 0.9334246 1.4463995 1.8870939 -0.46141616 -2.1405337 -1.180396 -0.12370101 -0.6338073 1.0463095
治 -1.3503522 1.1519854 -1.2143909 -0.19384424 0.3315902 1.0408834 1.7831703 0.26403606 0.39084226 0.66217107 0.012695245 2.3542316 -1.2942775 -0.45502302 0.37322602 1.0172732 2.4940357 -0.7253852 0.26818675 2.7613297 -0.87362796 -0.33469573 0.6278438 0.16788691 -1.0873666 -0.28753027 -2.3501587 1.3783784 -0.40361923 -0.30103594 -1.5785099 1.5758867
新 -0.96717805 0.056041703 0.30591425 -1.0806031 0.25520155 0.32180196 -0.060912576 0.8706962 0.13400492 -0.56879425 0.29696628 -0.8774337 -1.2479765 -1.2270292 1.0166116 -0.71763664 0.59490365 -1.0055556 1.2073892 -1.1091862 1.3162967 0.2074505 -0.13038284 0.72581553 0.022200545 0.9677835 -1.5497348 0.28923282 -0.21294123 0.133971 -0.8883425 -0.40795246
希望 1.0441071 0.04316095 -0.07649933 0.4547752 1.9083185 -0.40760633 2.29833 -0.24811591 2.406128 -0.75562614 -0.27164635 0.6929755 -0.47153324 1.1510925 1.251519 -0.43335035 0.6696305 -0.03277139 -0.3162181 -1.163519 1.3834956 1.2908021 0.63956743 -0.80328995 -0.0858694 0.6771322 0.7339367 0.7429775 0.47018147 1.350173 -0.1839749 -0.45763937
教育 -1.1197916 -1.1152635 0.03955853 1.1918077 1.7498462 1.062235 0.8037733 1.5521028 0.51909304 -0.30505195 1.5399158 1.241548 -0.24611084 1.3055476 1.5493561 0.2052659 -0.14421901 -0.01717086 0.685778 0.09061155 -0.90720826 0.44402248 0.8860658 -0.95324004 0.39863768 0.9646606 -1.2355309 0.24298014 0.8607216 0.31677264 -0.9057931 -1.2585324
面向 -0.42799637 0.9581156 1.2449642 -1.0061139 0.49516088 -0.8309601 1.677308 -1.1480513 0.7114542 -1.6892525 2.324453 -1.1070616 -0.19174479 -0.57205397 1.2855225 -1.6450826 -0.8032674 -0.18169777 -0.46510637 0.84569556 -1.1187686 -0.7070402 -0.64832866 -0.38459077 -1.4880786 -1.9378711 0.29626477 -0.61375743 -0.00023312362 -0.66681105 -0.6307882 0.7389314
世界 0.94024646 0.9959256 -0.64099807 0.17546399 0.0849843 0.11668722 -0.75471336 1.3928548 -0.56844294 0.07865501 1.3109488 -0.68616384 0.706566 -0.18551306 -0.12083555 0.17620274 1.054833 -0.14898947 0.46458668 -0.291734 2.189816 -0.48097035 1.0032126 -0.39057264 0.6092397 -0.6115569 -1.198148 0.014839634 1.1097877 0.6247219 1.3762311 -0.48084304
” 0.5031635 -0.20510119 1.3930118 0.5502509 -1.2719809 0.2814505 0.6565313 0.2551679 0.42046228 -0.66285974 -1.7825463 -0.49239454 -0.29451615 0.85470456 0.18405044 0.42106587 -0.47976443 -0.67904955 0.55278796 -0.40248752 0.2644525 0.98632973 -0.10757093 0.49679253 0.6433839 -0.6183176 -0.17289981 -0.48123845 -0.49299762 -0.36539125 0.10973991 -0.04710293
实现 -0.61537343 -0.9526788 0.41830325 -0.56788296 -1.2524703 -1.2609074 0.6451719 0.2132505 -0.17382376 -0.46207544 -1.0934247 -1.0624447 -1.8011014 -2.045165 -0.6505633 -0.7673487 -1.008867 -0.2745371 1.1559093 -0.97745854 0.34907812 -0.20672603 -1.0260905 -0.68673533 0.28807876 -0.47017923 -1.4992616 0.48564994 0.42603573 0.983635 1.706791 -0.24652503
关键 -0.6095903 2.3033667 1.2128472 -0.52183443 1.4612151 0.4155955 -2.4300246 0.631875 0.022401396 0.2655726 0.69100565 0.067308635 -0.742908 1.105882 -1.6700456 0.9286717 -0.49049985 -0.5960026 -0.46138912 0.40725344 0.5037125 1.0198777 1.5971853 1.5723166 0.026777582 0.5507686 0.32846436 0.2550942 -0.7113735 -0.31422946 0.44010833 0.17599528
科学技术 0.19761005 1.1242466 -1.0977522 0.03114967 0.6479896 0.30791742 -0.6888637 0.18844242 -0.17210054 -0.070293106 -0.33636525 0.6124412 -1.5820112 -1.1415384 0.3133184 -0.10570856 0.2397768 1.0166513 0.7612523 -0.6834249 -0.47121492 0.17772116 0.817346 1.5836746 -0.47153413 0.24021834 2.093256 0.10343575 0.7345915 0.79631287 0.034983885 -1.6755981
能 -0.9712037 -0.9063961 -0.31512645 -0.07843956 0.40280613 -0.31275368 0.6332462 -1.1745964 -0.8237254 0.25826013 -1.1291188 -0.23492464 0.5879893 -0.7999631 -0.019720564 1.0755806 -0.5582086 1.2564856 0.1649295 1.2113425 -0.2737742 1.2892936 -0.9253897 -0.5485192 -0.76003176 -0.30938455 0.031230623 0.45377615 0.31168264 0.007692516 -0.43773735 -0.20511763
上去 -0.44004065 0.79756963 0.67105234 -1.1466328 0.88647866 -0.50285804 0.83903193 -0.61075777 1.040192 -0.25910696 -0.75637305 -0.14234237 1.7757651 -0.7492078 -0.44579795 -1.1123606 -1.057668 -0.64429635 -0.013092972 -0.25933194 -0.97237825 1.256181 1.1915972 -0.3585123 1.1693467 0.3332993 0.14594325 0.8536984 -0.67056835 -1.9656314 -0.64132756 -0.9335341
想 -0.49832377 0.43605396 -1.1999383 0.7473354 0.97549385 1.3262982 0.27791724 -1.0641121 -0.27905607 -2.2966144 -2.2573917 0.0864734 -0.7026127 1.7284327 -0.6645081 0.84837335 -0.026475012 -0.84669083 0.86086875 0.52367043 0.0908516 -0.06419258 1.1775019 1.4329275 -0.6944231 -0.78000635 -0.35912248 0.20205644 0.35479236 -0.6064108 0.27481255 -0.30465525
看 -1.125564 -0.651437 -0.9523289 1.1393635 0.4193758 1.9155625 0.2909976 0.28541163 -0.53573245 -0.21032745 -2.1714065 0.92480874 1.9694927 -0.37635332 0.7454871 -2.170408 -0.37509808 0.08094321 -0.34749836 -0.51977086 0.76114154 -0.48094186 -1.0134176 0.0055948333 -1.4574223 -0.5108732 0.86538565 1.1154205 1.6924179 -0.5136649 -1.7673908 0.3851449
立即 -2.1199884 0.9257531 0.37901372 -1.869195 0.8614329 -1.5701313 -1.3852638 -0.21722788 0.063911624 -0.3065777 0.92469287 -0.8254733 -1.0003492 -0.57085 1.1656579 -0.54425246 -0.2432604 2.0895612 -1.1868631 0.2804108 -0.4443676 -1.0243702 -3.3219788 0.7703859 -0.31765124 0.38950223 -1.7068344 -0.823542 -0.71288896 0.20475695 -0.7040133 -0.32708517
会 1.0025792 -0.06553182 -0.41053236 1.7384977 -0.54207075 0.5212032 0.62779665 0.38305774 0.73413736 0.71348214 -0.3414403 0.24997841 0.5391676 -1.3960875 -0.6750701 -0.7035899 -0.23240311 0.8194618 -0.1855978 0.9029928 0.993367 1.6794072 -0.73878026 1.7703322 -0.777539 -0.49454778 0.044503007 1.1320586 0.64084387 0.28399375 -0.3607492 1.4675145
又 -0.06376143 -1.0576346 -2.1911032 -0.1135099 0.83102053 -0.06250571 0.5350783 -0.5413128 0.72814715 -1.1962906 -0.030682443 0.9041876 -1.6465762 1.1116717 0.7387976 -0.72321606 -0.024467472 -0.6328628 -0.27382421 -0.01003028 -0.20883544 1.5738658 0.13079114 1.3043492 -1.0338877 -0.08002537 0.22651607 0.9548368 -0.1863594 0.6046928 0.9311632 -0.8559043
急 0.893823 -1.6553715 1.613778 -0.91420734 0.4142133 2.0347319 -1.1891816 2.5448036 0.26579243 -1.2534385 0.74407285 0.41562894 0.107963644 0.60221857 -0.11092 -0.124539085 0.9849847 1.0221698 -0.9598032 -1.1754144 -0.24380943 -1.6449356 1.5275836 1.9243041 -0.7170019 -0.26876432 2.308646 -0.5161066 0.67571604 0.787135 -1.1066653 1.4009887
点 -0.71118 0.36018237 -0.83836794 0.70397717 0.5388196 -0.69947326 -0.15422659 -2.297863 1.5331699 -0.65648806 0.7303525 0.6681339 -0.46796057 0.87881815 0.6893514 -0.57760847 -0.8339448 -1.0423491 -0.64569163 -0.53726923 -0.783988 -0.93716645 -1.2467517 -0.34262457 0.8713747 0.94900376 0.4415644 0.8637562 1.5106086 1.2893351 -1.78641 -1.1305082
看见 -1.0300059 -0.14333855 1.1518573 0.5750008 0.019416666 0.11725448 0.21670018 -0.39548868 -1.7607248 -0.10801377 -1.7381555 0.8196632 -0.13709868 -1.834021 -0.64639616 0.7156361 -1.1010479 -0.14653042 -2.2312486 0.40879628 0.11451533 0.30814332 0.18105818 -0.40230098 0.70798624 1.4168373 -1.4406059 0.51285213 -0.2810126 0.005916366 1.2923614 -0.31115177
目前 -0.0030946971 1.3596672 0.85529244 0.21811604 2.0041227 0.5414306 -0.83484036 -0.2863255 -0.13223739 -0.37564817 -0.12466496 0.6999939 0.08683379 0.71134096 -1.0743041 -0.78180665 1.2092063 -1.3606783 1.0571507 0.47482327 0.4529372 0.91323304 -1.4716831 -0.11405722 -1.1960063 -0.7841922 -2.7079973 -0.045595203 -0.020118771 -0.10939505 1.4269829 0.50855666
我国 1.3917798 -2.1515455 0.39279315 -0.45662722 0.33671698 0.835267 -1.5424706 0.026561804 -0.72536933 0.24805714 1.0647763 0.91649294 0.98655945 0.37752122 -0.43820903 0.12183753 0.6943446 -0.17337081 0.7752272 1.075332 -0.42828655 0.7569704 0.8251707 -0.44721857 -0.1853909 0.98508245 -0.6505479 -1.0334637 -0.0059702564 -0.78606105 0.81092566 0.1569378
区 0.40948597 0.6085671 -1.1788629 1.9571385 -0.574134 -0.12953919 0.31414238 0.7188019 0.20285094 0.43788177 0.81049424 -0.19534938 -0.369483 0.79226846 -0.55579865 -0.71369964 1.6464082 -1.0136236 1.1099954 1.8049357 1.519041 1.0268803 1.607985 -0.06387278 -0.880132 -0.69056946 -0.088327385 0.047666416 -0.75660145 -1.6620711 -1.2141567 0.924818
高 -0.7441061 0.8752491 0.33507302 1.4796636 0.6322244 -0.21215937 -0.8570578 0.19424823 -0.26630452 -0.37972447 -0.7180424 -1.1928129 -1.0054934 -0.8795967 0.06926873 0.2929565 -1.4066825 -0.032656003 -0.5068539 0.27275243 0.87670434 0.66215557 -1.3475844 -0.03541979 -1.2386817 -0.60102737 -0.360229 1.4954933 1.3772871 -0.31588548 -1.2210166 0.2087992
分散 -0.39952362 -0.85310054 -1.0457368 0.16721736 1.5019412 0.23719151 0.8972027 -0.7592182 2.735237 0.43047082 -0.046338033 -1.384232 1.5505539 -0.75604993 -0.7559001 0.3216311 -0.10719409 0.89166236 0.27779967 1.710698 -0.8153738 0.94412386 -1.4821646 0.14431268 1.1173611 0.95935017 0.02923433 1.0237688 0.655819 0.8092896 0.515907 1.5806446
您 1.6887063 1.8313935 1.232484 0.4877295 -0.3950841 -0.2858103 0.42777056 0.3953009 0.42421657 -0.3205251 1.7475742 0.3492264 0.2093407 1.3812709 0.8387125 -1.9112955 1.8618853 -1.6208876 0.6560399 -0.5378676 0.5412141 1.636967 0.25023216 0.2791553 -0.8781191 0.41215795 -1.0750364 0.8667187 -0.39428037 2.1859932 -0.71726096 -0.24932083
现在 0.05384114 -0.83212906 -0.31419954 0.20612909 -0.07369004 0.42991292 0.7979203 0.030058987 1.0979875 1.3109374 0.9302538 0.19197749 1.3401698 0.17603846 0.3858381 0.3194107 -0.3844916 -0.10311228 0.6797998 -0.3197519 0.52670676 0.065639295 1.7557404 -0.63586485 0.49070522 -0.7001194 1.9341311 0.42485574 -0.019164834 -0.33232978 1.5599635 0.51371515
吗 -1.1164414 1.5133007 -0.44166008 -1.4903674 1.025488 -0.17924869 -1.400194 0.026916523 -0.3128046 -0.027126864 0.54036874 1.1232305 0.3600432 0.29642 -0.13139716 0.17999682 0.7525519 -1.6297389 0.3222633 -0.09894988 -1.1670619 -0.86266863 1.0192108 -0.37085313 0.9527914 0.29800293 -1.099929 -0.064720914 0.16108084 0.12506682 0.8446244 0.119587414
这么 0.90728116 0.1563979 1.0319518 0.026758177 1.6063181 0.86692876 0.6277732 2.0676327 -0.7225043 -1.2018337 -1.1041905 -1.4117656 -0.66841316 -0.40411952 0.43404362 0.37340432 -0.5983223 0.9257797 2.4013062 1.1698921 -0.11075485 0.18330428 0.34545687 1.6950208 -0.40530306 1.750317 -0.40802312 -0.35797286 0.4934343 0.78604794 -1.4963651 1.7978855
之后 1.7229034 -0.834316 -0.7824118 0.66603136 0.004816317 -0.701993 -0.21093187 0.66787136 -1.3259624 -0.57441187 0.8338153 0.17124408 0.11526343 1.1682885 -0.8333584 0.18710963 -0.045295622 -2.3317215 -1.1921072 -0.011003713 0.8787174 -0.6729289 1.3684163 0.6661493 -1.7286521 0.6098473 -0.7849783 -0.07812208 0.92012924 -0.3862284 -0.49463987 -0.8951882
总 0.93880963 0.43662754 -1.410142 0.22812746 -0.5662062 -0.056054767 -0.72518903 -0.9964805 0.74531966 0.90456986 -0.63513625 0.2606307 0.7065187 2.2981646 -1.0401626 -0.52664596 0.030709462 -0.40762964 1.0263307 -0.531135 1.5800897 0.59270173 0.12398235 -0.98638994 0.16517635 1.4051079 0.41479045 0.5809626 -1.2078905 0.18468255 0.27913222 0.76819235
身体 -0.2927057 1.2965008 0.74201053 2.0011585 -0.04679279 -0.0803217 0.93389475 -1.1996386 0.34800896 -0.28024223 0.6300971 -0.46087018 -0.05293885 -1.1716795 -1.2608309 -0.37975588 -1.2937843 -0.65222526 0.2462558 1.3310815 -1.9764773 -0.9955744 0.9895624 -0.10013265 0.04399174 -0.69171226 0.19313619 -0.6423974 0.1615993 -1.1888714 -0.3750194 -0.32720068
地方 0.4131088 0.34193355 1.6900914 1.6416447 -0.094961174 -0.29218593 0.3246706 1.0009081 0.58912545 -1.4378109 -0.12121348 0.13544041 0.7274169 1.1912553 0.3913305 -0.3358436 -0.07496936 0.43604034 -0.36576697 -0.9788184 0.33098415 -0.3350205 2.5636625 -1.5870322 -0.4833531 -0.5658193 -0.22266051 -0.5883982 0.40563968 -0.42315623 2.1428454 0.016867744
留下 0.5458707 -0.36963108 0.6638683 0.73587173 0.010356759 -0.22306831 0.81976104 -0.22494768 -0.37787974 -0.6206937 0.042164836 -0.003883267 0.6453496 -0.6781836 -0.20850764 0.14591224 1.313925 -0.44082382 -0.95153904 -0.94674456 -0.11535925 0.72801346 1.0936812 1.6784774 1.1533471 0.5522543 -0.16386747 -0.3172277 -0.06530672 0.8685765 -0.8930746 0.53852916
被 -0.8041432 1.0727465 -0.42720786 0.45919937 -0.011524233 -0.2117887 0.20467934 -0.4117725 -0.37250882 1.1619244 0.77515244 -0.5284972 0.07842071 1.8805894 -1.0957342 1.5902071 0.21591544 -0.6882138 -0.67862785 -1.0269903 -0.006143804 0.012471844 1.1754361 -0.8211427 -1.2607986 -0.12821272 1.2526976 0.60188735 0.45839927 -0.48622796 -0.8806691 0.037334032
为 0.8015638 -1.2681993 -0.43334273 0.44303823 -0.7680827 -0.04385111 0.38863865 -0.6135372 0.016746135 0.46766683 -2.031173 -1.4565862 -0.67983496 -1.295417 -0.84395874 0.42135814 -1.5458921 -0.9237343 0.006317182 -0.21485029 -0.12176007 -0.094419815 -0.8900985 -0.715441 -0.55924195 -0.4968332 0.4355531 0.95709306 0.49923518 -0.21268333 -0.46879113 1.9814385
后 -0.5117495 -0.32001677 -0.82261914 -1.1541632 0.5707698 2.5392947 0.38414267 2.4229095 -1.115508 -0.8755292 0.6465681 1.45138 0.55191725 0.30670288 -0.58804786 -0.20677072 -1.0588989 0.29623654 -0.2081221 0.0005702539 -0.09596075 0.05269885 1.3584306 0.92017275 0.952477 0.7814898 -1.2473768 1.0660082 0.3719072 -0.44295263 -0.17564134 -0.27508682
眼前 0.7148699 -0.75653636 1.7937659 0.6633233 1.5178411 -0.8269774 -1.3858914 -0.30443814 -1.3403711 -0.9098278 0.93362087 2.2787397 0.44946477 1.1555328 -0.22559886 1.2478411 -0.04038889 -0.18888585 1.5455164 1.0516284 -0.38281623 -0.5020533 1.0032142 -0.6902946 0.28608456 0.582575 0.3258518 0.2700823 0.9797764 -1.181543 -0.034330163 0.07271766
家乡 1.4253479 -1.1836026 0.4310993 0.7522229 0.2660555 -0.17541397 1.1694264 0.53224504 1.2167966 0.88663095 0.14086656 -0.016724698 -0.87054527 0.4134249 -0.5562673 1.2264836 2.0269065 -0.3827031 -0.7373414 -1.7526871 -0.084981196 -0.50246936 -1.0354393 0.7849746 -0.987172 0.70423305 1.2467619 -0.7275354 1.6092883 1.2621017 -0.26497337 -0.8156925
比赛 -0.4032549 -0.54810107 -1.7628045 -0.08249417 0.7849062 0.085454 -1.6658468 0.6673878 1.4142673 0.33776557 -0.018331895 0.8522412 -1.0958669 1.1906615 -0.9138927 0.6462597 0.78421575 0.4236721 -0.4581411 -1.6797737 0.009970599 -0.20388049 0.8941465 0.7324068 -0.7027305 -0.8836574 -0.69361067 -0.0877525 -0.32284474 1.2167267 0.6182897 -0.088441394
那么 0.3514197 1.3085296 -0.43997523 -1.8010062 -2.561472 -0.40572068 0.87736326 0.38802198 -0.7426175 -0.1100821 1.1372225 -1.1093042 2.159544 0.37239167 -0.6982777 0.048014652 0.9799742 1.1274308 0.2792755 -0.5368939 1.5949516 -0.0055393325 -1.3039213 -0.79839694 -0.2041887 0.23403345 -0.18016802 1.4075028 -0.9449026 0.3680013 -0.77855814 -0.6341227
观众 0.46421954 0.9141741 -0.2546311 -0.85244286 0.054024745 -1.2139022 -2.247943 1.0918567 1.7426994 -1.3443843 -1.7235554 0.5525855 -0.44668505 0.18700635 -0.93885165 2.0821576 -0.014293178 2.5716906 1.7078371 0.3027883 1.0509074 1.0730529 -0.7867219 1.0032054 -1.0313917 -1.3915553 -0.5151475 0.3628539 0.15765032 -1.4777715 0.19000776 -0.27770612
紧张 1.9013993 0.68968815 1.4271276 1.0910002 -0.40853015 -1.9938833 -1.1186612 0.8930618 0.51437986 -0.5163337 0.031203017 -0.99385285 0.75179625 1.2680506 -0.4824496 -0.040877093 -0.22357324 0.42295358 1.8022996 -0.7062567 -0.4344605 0.34875792 -0.52332324 -1.7555132 0.58484125 -0.35868374 -0.011901313 -0.32162866 0.77457136 -1.6966488 -0.62095505 -0.00025123853
极 1.7052615 0.38893968 -0.37629923 0.8498 0.5070155 -0.44650018 -1.1438328 0.3402203 -1.666063 -1.0920277 1.412849 -0.2774363 -0.8746257 -1.0220668 -0.4090824 1.5413111 0.5029269 0.98257506 0.21776463 -1.1334589 -0.24602772 0.28282177 -0.49783936 1.4964975 -0.427913 0.58915377 0.43717363 -0.9179645 0.19885267 0.2153758 -0.57755995 0.8898131
人 -0.6744429 -0.7219538 -1.4065398 0.24946558 -0.3403093 0.5151483 -0.75646627 2.4261725 0.6526026 0.6378739 1.2435193 0.18597274 1.569139 -0.8896218 -1.9375421 -0.29491398 -0.6009226 -1.7187588 -0.17203966 -0.057514478 0.29534194 1.4807523 1.1727897 -0.63137144 -1.4550805 -0.37577567 -0.45577556 0.7616794 -0.445801 0.45102122 0.23534703 -0.8395207
做出 2.549863 -0.06646233 -0.45562798 -0.20055126 0.3564306 0.9603548 0.40426245 -0.086702265 -0.58923686 0.81602556 2.5860946 0.87911713 0.31600425 -0.20559362 1.6390561 0.71973985 -0.63974893 1.5103791 0.84554213 -1.2150638 0.87556297 -1.2828144 0.9568238 -1.7765223 -0.60606045 -1.6273385 -1.2965462 -0.7778163 0.14636768 -0.95352954 0.88147724 -1.112236
一点 0.71486044 -1.8235822 -0.2774343 0.022694571 1.4414152 -1.5126978 0.64846617 -1.3107191 -0.6321684 -0.68304664 0.33529505 -0.346051 -0.46639255 0.8256038 -0.8252919 -0.18357219 0.35140634 -0.7500998 -0.14328955 -0.91387403 -0.5944574 -0.3612905 -0.6010301 0.3631511 0.9585644 0.55446976 0.06434451 -1.3030614 -0.16994464 0.1846094 -0.66120094 0.7293806
事 -1.984359 -1.1543986 1.2136009 0.18563968 1.3899723 1.3239605 0.0878383 -1.7787582 0.04096563 -0.8462365 -0.79148966 -0.27308378 -0.711586 0.26868302 -0.015521646 -1.4632245 -0.6773198 -0.32881972 0.25868145 -1.3605165 1.2166474 1.6532273 1.0828326 -0.67390376 -0.5301053 0.41513798 0.52768534 -1.9959593 -1.0367271 1.3500355 0.40585864 -0.354051
必须 -0.453268 -0.5586512 0.4268135 -0.99684346 0.89819604 -1.8340137 0.046365164 -0.9379604 0.68386126 0.20534949 -0.8748868 -0.29812938 0.04902596 -0.61170983 -1.6633412 1.0479285 0.17610452 0.26613274 1.6962502 -1.4961632 -0.3128053 -1.4055792 0.82785493 -1.0988946 1.0628515 0.905093 -0.07673991 -1.5316536 0.29775724 1.101062 -1.2925427 1.0874101
牺牲 -1.5163271 -0.8906607 1.167827 -1.095498 0.6364228 -0.6771192 1.3345255 -0.11694668 1.0815452 -0.28682715 -0.71366566 -0.9441982 0.3534773 0.92695373 -0.04434109 0.15596563 -0.035438098 0.64917386 -1.8460561 0.4959227 -2.105481 -0.71547264 0.47068578 1.2075535 -1.9490769 1.0328873 0.37652886 -0.5954076 -2.1678982 1.1823217 0.8525658 1.5935507
有所 -0.51683897 -1.448177 -0.16400291 -0.7835465 1.374951 0.07170738 -2.153528 -0.9072218 1.5912694 -0.5639501 -0.36646813 -0.6475998 -0.2576217 -0.3691408 0.607098 -0.5448149 1.3557861 -0.37307975 -0.12908451 -0.66880465 -0.31913736 0.094968766 1.060074 -0.8092668 -0.19807167 -0.75109476 -0.38385454 -0.8606554 -0.76848495 -0.20041914 -1.1017107 0.14063466
得 -0.19740072 1.0216765 -0.25558192 -0.99663305 -0.07615037 1.2790952 -0.30845284 1.1151894 0.72431767 0.8999774 0.26541272 0.14977983 -1.1347961 0.68075514 -0.25534654 -0.40003645 -0.5551711 0.5458741 -0.7181551 -1.0985239 -0.6413758 -0.7096167 -0.6729469 0.10787744 -0.096999 0.9264676 -0.078424826 -0.6808575 -1.0156072 0.16928819 1.0247282 2.635623
这是 -0.18708572 -0.11361733 -0.061031807 -1.5005295 -0.44936934 0.93161917 0.66305053 -0.30030778 -1.6933787 0.6482152 0.81848407 1.1069031 -0.53598 -0.39251253 -0.25963983 0.005599382 -0.2457894 -0.6989449 -0.478942 0.38634464 0.5613152 0.15916918 1.3957736 0.9159885 -0.36918324 -0.92350256 -1.0070385 -2.0748231 0.8141313 0.0940016 -0.26743546 -0.22759908
厂 -0.22834422 2.7520924 -0.06014725 0.9413578 -0.09732598 -0.0070233997 -1.6082516 -0.55239475 0.80335724 -0.043874156 1.3307191 -0.06089607 -0.6914888 -0.7238635 -1.4013344 0.37630633 -1.328683 0.33053896 0.18954705 -0.17291191 -0.3528672 1.0099299 0.89355177 0.528079 -0.8766554 -1.3884077 -0.68620974 0.4017864 -0.2919525 0.37334642 -1.1080297 0.3428264
项目 0.6114214 -0.86628914 -0.07254803 -0.34794065 0.5843961 0.50822735 1.8583295 -0.7318031 1.0075761 -0.0038306573 0.36716056 0.20588621 -0.28740802 0.20941344 0.7948917 -0.687258 -1.7979723 0.1585029 -1.4191036 1.4369892 0.93343645 0.25900513 0.95166355 -0.5565653 0.6569942 0.11537541 -0.21538708 2.9193928 0.43599525 -0.59647757 -1.379199 -1.5906385
再 -0.4395801 2.1047237 1.732211 -1.9940577 0.3794292 -0.7236867 -0.30260924 1.8667935 0.13630418 0.05963814 -0.2581062 0.8397536 -0.8860065 0.4669884 0.15779959 -0.61839867 -1.4657631 0.54658115 -1.0246587 -1.7765995 0.93144095 -0.8492672 -2.1237564 -1.6420152 1.6391275 -0.52739644 0.33008382 -0.30339494 -0.5534456 0.2261312 0.7446849 1.4518161
吸收 0.39853746 2.0286517 0.14538343 -0.4214713 1.2333862 0.8333584 0.9206368 -0.441598 -0.008730005 0.21343382 0.4696902 -0.25772086 0.4656975 0.6562945 -0.7946558 -1.1343807 -0.29665247 -1.2022868 0.11794982 -0.2994628 1.4085839 0.99256766 -0.7094923 0.3574062 0.87826025 -0.70538485 -1.2953182 1.0181311 -1.6807307 0.6394365 1.7822595 -0.3214251
下岗 -0.39613423 0.20806919 0.94401634 0.11951682 -0.28454405 0.22730426 0.81137055 -1.410687 -0.104655355 0.10772549 0.18129975 -0.4578472 -1.218456 -0.85010284 0.5008557 0.9588409 -1.2786291 -1.9568206 -1.5552628 2.127211 -0.17002259 -0.40752336 -0.6066581 -0.9006438 1.7893653 0.5658716 0.23811191 0.965797 0.8496749 0.33119258 -1.4112242 1.4278165
职工 1.2458159 -1.472906 0.8569262 -0.09995826 0.29500577 0.9393444 0.13598561 -1.7052665 -0.84092057 -1.694241 -0.22256732 -1.0066488 -0.30648318 -0.29385692 0.26280683 0.52097976 0.2542265 -0.078225836 -0.14475307 0.6424598 0.23535873 -0.58723104 0.4702522 0.89121515 -1.329313 0.8724832 -0.4355815 0.45765653 0.6351355 -0.1339941 -0.00759593 0.2825462
不少 1.1249928 0.032204717 -0.11727174 -0.32505596 1.2837431 0.03649678 -1.3992597 -0.55668914 -1.0964744 1.2823848 -0.41964477 -0.45347998 1.0602573 0.76635146 1.3158376 0.013568542 -1.5985202 -0.7101687 -0.8068979 0.009482846 -0.76531756 -0.0035171062 0.28890592 -0.2964975 -0.20975313 0.32973146 -0.9940509 0.7233739 -0.11804442 1.8323213 0.90419227 -0.23060799
少 1.092369 -1.2040212 1.9131745 1.1897193 -0.9253678 0.6899651 -0.03481101 -1.344121 -0.94832635 -0.38950348 1.5775468 -0.34872395 -0.75380266 -0.82011765 -0.20901364 -0.69190377 -0.8279042 1.0966678 0.16598757 1.0825413 0.050115723 0.6693259 0.24510206 -0.8180197 0.41983765 -0.7370824 1.4317645 0.015496277 -0.57627183 -0.21581149 0.19382188 0.03926383
影响 1.3456424 -1.3879018 0.7114953 1.3742435 1.6995394 1.3708471 -0.83855647 1.5972971 0.33167142 -0.9825256 -0.64883494 0.89314044 0.7156864 0.9739579 -1.2553033 -0.4034126 -0.7089109 0.2616944 -0.90737706 0.1688968 1.1448796 0.52137834 0.11597697 0.31699935 0.8559531 -0.643449 -0.67773825 -0.22294426 0.02698862 0.20899689 -0.38679388 -0.4232272
干部 1.9002597 0.26567206 -0.47475502 0.13098542 -0.1722686 0.12413807 1.2583596 0.7137933 0.85421973 -0.0075987196 1.3083457 -0.009608843 -0.89281964 -1.0894591 0.93878454 0.36756155 -0.81524354 1.280652 -0.52584904 -1.12813 -1.7921321 2.1862094 0.491341 -0.1349326 -2.2872634 -1.2727919 -0.46864387 0.2587719 -0.13016012 -0.65771115 0.34677652 -0.71240234
工作 -0.05994083 0.14363098 -0.14178579 0.5773455 -0.64838785 -0.5334275 0.43108052 -0.90906745 0.45230648 0.8475197 0.052531514 -1.3360202 -0.26604193 0.7123737 -0.18500714 -0.70386547 0.39846325 -0.6401455 -0.38682282 -0.3113617 -0.02260758 0.5994544 -0.0499207 -0.2397812 -0.67271364 0.5433918 -0.0827707 -0.5865205 0.69863397 -0.78904706 0.24539156 -0.13781144
进取 0.5765809 -1.0119286 0.21207169 1.5719813 -0.7835092 0.18859401 0.53028077 -1.2814513 -0.053691123 -1.1310915 -0.5559348 0.8647859 0.7337661 0.8497033 0.6940011 -0.7536649 0.6738274 -0.28722298 0.16109458 -0.20104256 0.7104628 0.14792408 -0.20691556 -0.39445743 -0.59222203 -1.3415817 0.84233224 0.19887637 0.23187655 -0.14902458 1.3312213 0.3171904
重要 0.2097334 -1.5550756 -0.7731019 -0.59082675 1.0050148 0.7226238 0.105331 -0.2229092 1.114663 0.4971921 0.22438087 -1.3732872 -1.2373875 0.7013446 -1.7578661 -0.13169987 1.7781732 -0.5604436 -0.79520476 -0.77563757 0.43257418 -0.98147655 1.8321549 1.3302848 -1.0443348 -1.5618849 -0.5041372 0.65368336 0.19981809 0.72313666 -0.9835079 -0.54840595
改革 -0.26870966 0.8617734 -0.09787967 0.24701807 -0.07398583 0.37709033 0.73694336 -0.65894705 -0.8440119 -1.969162 2.1586125 -0.33750418 -0.0586993 0.6156756 0.7225617 -1.3602194 -0.6570016 0.31736833 -1.1946777 -0.18579863 -0.107642695 -0.7221989 0.842391 -0.5900612 -2.455718 -0.49297148 -0.42968637 -0.01605869 -1.7889178 -1.237533 0.41271585 1.5668548
发展 0.9976739 0.07522638 -0.8520243 -0.5681418 0.7894478 -0.01836619 -1.1199166 -0.44130298 -1.3812011 -0.50222373 -1.7032102 -0.8145374 -2.3438685 0.42608753 1.6111507 -0.510025 -0.6203553 1.0156307 -0.7103592 -0.24461909 0.5832189 -0.43147275 0.38864696 -0.4967291 -0.12503941 0.34935164 1.1030685 -0.10494069 -0.90223426 0.89793736 -0.081319936 1.8883168
老人 -0.34575045 0.9028481 0.62034804 0.7375408 0.5135481 0.33979023 -0.21137568 0.41684836 0.2536703 -0.21370925 -0.18459475 1.3286949 -1.8137596 -0.0039610476 -0.50920373 1.6606462 -1.0096997 2.4740584 0.2752692 -0.43479103 0.68824774 0.5520189 -1.7479937 0.12691997 0.61220294 1.3994287 1.2167785 0.58609354 1.3593036 0.8402333 1.673494 0.4824257
一种 -0.48012108 0.015539474 0.2740633 0.3539114 1.1049303 -1.9028265 0.9127178 -0.55967325 0.2072355 1.1749799 -0.5542796 -1.6483829 -1.3384258 1.3004335 1.0567323 -0.83622515 -2.2372363 -0.8033025 2.0637045 1.0245987 -0.8034748 0.6864329 -0.14229281 0.89828855 0.61307317 0.3969269 0.1960999 1.4643613 1.1784533 -0.5566636 -0.8405213 0.35588673
而是 -0.5291734 0.022415161 -0.89561725 0.10149156 -0.5594877 -0.15857203 1.959402 -1.5477117 -0.120269954 0.7344896 -2.5207705 1.380954 1.9962131 -0.4233734 1.717508 -1.4295362 0.83894897 1.1466892 -0.8706256 -0.8884222 -0.47532824 -1.2199763 -0.08250935 1.5658811 0.6343177 -0.1648317 -0.86476296 -1.0485437 -0.44411117 -0.7952918 0.2361472 0.13793646
保证 1.7366278 -1.4776427 0.22158957 0.5867953 -0.7031231 -0.91198194 0.892764 0.12586658 0.31853235 0.9419737 0.88276106 1.0863013 0.8412071 0.12372075 -1.6686924 -0.55568975 -1.3630491 1.7301208 -0.19090028 0.41210887 0.5056614 0.1276207 -0.728353 -0.8993654 1.6892734 -1.0058031 -1.4292605 -1.0286001 -1.0093018 0.55271244 -0.95600665 0.37970152
足球 -0.8821024 0.46339685 -0.7230484 -2.006547 0.7311761 -0.22725238 -1.6619359 -1.594527 1.1098163 -1.6766347 0.57092863 0.15605003 0.9409926 0.9746045 -0.8009599 1.4192932 -1.0673444 -0.6481171 -0.048884533 -1.2731254 0.944793 2.0539172 0.28549358 0.04393208 -0.09884751 1.1769108 0.8683621 1.0447733 -2.7674606 0.42134655 2.2916327 -0.9253406
运动 1.6949228 0.4284296 -0.9264851 -0.46884778 -0.12586106 1.6402024 0.016354797 -1.1722275 0.20516954 0.8197749 0.24856728 0.89885074 1.934792 -1.0300756 -0.7781695 -0.3651108 -0.09085661 -0.33741996 -1.8654141 -0.9518458 1.0442395 1.3620442 -0.2327733 -1.6660354 0.8186943 -1.0595108 -1.0636128 -0.44128928 0.55602944 -0.24656089 -1.7863202 -0.6496084
由 0.7889818 0.50924265 0.09336492 0.7687276 -0.27608788 1.6644756 1.3620777 0.8291977 1.1980739 0.83891034 -0.5973413 0.5351732 -0.1944232 -1.5781008 0.61411685 -1.0281415 0.29833135 0.20697613 -1.1432574 1.4053888 -1.7444141 1.2217606 -0.08667266 1.1346222 0.12623721 -0.9326844 -1.473137 -1.2458949 -1.574945 -1.697924 -0.01123307 0.8019918
它 -0.17415343 -1.1080582 -0.26522994 -0.91128546 0.03708939 0.15057011 -2.1484714 0.6913202 0.5921998 0.05681369 -0.21967126 1.9915978 -0.5733917 0.3705643 -1.6645678 0.0733579 -0.17651506 -1.0691807 1.4159033 0.072229214 1.3296144 0.7812435 0.41224867 -0.4825916 0.21784768 -0.8387152 0.2580108 -0.75457525 -0.29108557 -0.2956896 1.5918459 1.1518523
应该 -0.097051345 1.0877904 -0.54014325 -0.33467752 0.29669896 1.5885117 -1.1367188 -0.27178866 0.7061035 0.7392388 0.23830129 -0.040852487 0.66445446 1.4696883 0.7023025 -0.0887411 -1.8110006 0.8622176 -0.042657938 0.04933553 -0.93651754 -1.025886 1.5792072 0.48387164 0.2402472 0.8328961 0.6932296 0.30969563 0.6662851 0.239281 -0.40022087 -0.20892775
国际 2.047226 -0.35776606 0.45301375 2.5243971 -0.10652199 -0.085195646 0.50160223 -0.87509775 -0.083650626 1.2929013 1.0247452 0.9213169 -0.5871782 0.30694637 -0.5042593 1.8211628 0.9347575 0.06005754 0.7606973 -1.6611639 -0.0012223384 -0.057676725 0.633412 -0.45373896 -2.3252347 1.7917756 -1.7670547 -0.2492206 0.4531279 1.2964004 0.045542784 -0.84279865
竞争 -0.16994984 0.9711065 -0.8700709 0.14659761 -1.0887214 -0.1010045 0.99870926 -1.2671062 1.038678 -1.9804657 -1.1992581 -1.3341793 -0.23949258 -1.517418 -0.18896993 -0.5068907 -0.09115027 -0.15697148 -0.70789754 0.2208389 1.134452 -0.9389222 1.2251682 -0.14981116 -1.7676364 0.27853417 0.66064215 -0.28583142 0.30503967 -0.6207794 0.5786726 -0.7162502
激烈 -0.056648962 -0.27767935 0.86011034 -2.0133328 -1.2449327 1.7991992 0.8073768 -1.9085109 0.3706891 -0.036314532 0.15860039 -0.30849376 -0.970787 0.23969413 -0.36161727 -1.3069265 1.9562846 0.763129 -0.052922167 -0.15523139 -1.9006802 -0.6319102 -0.89926696 0.51786476 -1.879774 0.15692326 1.1745285 0.90333056 1.1474061 0.07749705 -1.4949821 -0.17724055
叫 -1.6271079 0.37556082 -1.8035291 0.4705569 -0.6175809 0.3429133 -0.5975841 -1.3031548 -0.60733896 -0.7857192 -1.847185 0.92071956 -0.53193134 1.4882154 0.71074706 2.2579908 -0.41940814 0.48226973 1.7775457 -0.13320857 0.552049 -0.1314444 -0.14138697 -1.2805469 -0.0058702114 1.3695915 -0.5492121 0.005187604 1.4299523 -0.41134176 -0.10572003 0.69026303
名 0.5029846 -0.47241288 1.3581924 0.20870848 -1.2656507 -0.12034067 0.10273223 -0.46595514 0.18280369 -0.94446445 1.0690292 -0.7117637 -1.0058924 -0.046814147 0.8482012 0.83501565 0.91736317 1.6685715 0.3386279 0.50986886 -0.6036749 0.21295205 -0.5090021 0.5708576 -1.0061264 -2.1873124 0.6989392 -0.18904147 -0.44655463 0.5240094 -0.85057974 0.20005295
儿 -0.5849726 0.52602226 -0.27569538 0.886513 -0.08736529 -0.7700744 0.1261625 0.0018602919 0.26629588 -0.27571213 -0.61145025 -0.33357394 1.2774537 -0.94873923 0.039701056 -0.19694543 -0.917594 -1.0177015 0.66146475 -0.2644838 -0.05678756 0.73768204 -0.23910786 1.4428749 0.5978843 -0.3611568 0.1339126 -0.23690657 0.8625059 0.7684261 0.6853646 0.4313461
却 -0.09828854 1.6372308 -0.039224476 -0.39125025 1.2915516 0.1456583 -1.7257661 1.5059747 -0.41967478 0.9793877 2.0287287 0.35600248 0.44274735 0.75597006 -1.8183516 0.9915219 -1.3473152 1.1597116 -1.0156469 -0.78519636 0.22686644 0.20146056 0.32229415 0.45461327 0.3552422 -0.09005988 -0.18594015 0.49970844 -0.63368994 -0.0014744801 0.53316325 -1.8652558
地 -0.6415674 -0.20335929 -0.65842336 -1.3530358 -0.795755 1.0462248 0.09239454 -0.28709528 -0.1848894 -1.4424111 -0.55396354 0.9333329 -0.025248887 -0.27604914 -0.32639888 -0.62490106 -0.3530354 0.2981404 1.3725437 -1.5155263 -0.05572875 0.28201023 0.9042798 -0.0026257292 0.26176682 0.15403175 -0.013140686 0.22394666 -0.24729598 0.8962682 -0.43645427 -1.3720666
石油 1.1806664 1.3570209 0.1327058 -0.8433145 -1.618257 -0.075426035 -0.21865587 0.2951947 -1.356424 0.8388837 -0.14379346 0.5708657 -0.38375506 -1.6370986 -0.20618987 0.62004334 -0.15052879 -0.1704963 0.44158092 0.55486906 0.9124965 -1.9682697 -0.03236316 0.048643824 -1.4621756 -0.34689137 -0.5748912 0.83004934 0.40843526 -0.21489838 -0.7290857 -2.248828
公司 0.5316933 0.87125224 -1.3443558 -0.41718653 0.790184 -0.3665086 0.6653729 -0.36430156 1.0386819 2.561455 0.57244354 1.4862621 -0.1761968 -1.3125697 0.44432282 -0.00083823985 1.7659881 0.97918046 -1.196338 -0.5254456 -0.85637486 -0.5940687 -0.20674855 -0.69773746 -1.4113797 0.6169054 -0.55296224 1.299385 0.26434085 0.20304067 0.7659041 -0.6047593
消费 -1.3149948 0.6947457 -1.3773608 2.065332 -0.8365747 -0.8908819 -0.87103814 0.36738077 0.31807214 0.21985169 -1.2341424 -1.2116398 -0.012898313 0.94968635 0.08763901 -1.8481978 1.9595919 0.3601618 0.052535217 0.25933546 -2.142489 -0.51470804 0.31977877 -0.34342736 1.1429962 -0.90032566 1.6414024 -1.6798444 1.1075544 1.9114294 -0.29313552 0.24867956
相互 -0.52750623 -0.70644045 0.49146098 -0.21001948 -0.7783077 -0.82022876 0.65847534 2.3608289 0.4593717 0.7521736 -0.39445043 -0.041482825 0.68655264 -0.74132377 0.18962641 -0.10889724 -1.0808811 1.5038964 0.5319203 -1.5122216 -0.19533083 -0.8779322 -0.22161166 -0.48151952 -0.8527568 0.028494982 -0.0010497993 -1.3315469 -0.3278335 -0.01847397 0.6014052 0.5551097
长期 0.28175104 0.7253614 -0.38028646 -0.40859604 -1.227883 -0.41951975 -0.9240846 0.32669207 1.0251427 -0.6842044 -0.52923125 -1.9800413 0.5444836 0.4052411 -0.37742117 0.43227136 -0.07697207 -1.9113953 -1.172275 1.3708211 0.30958864 1.0486858 -0.88506997 -0.14899172 -0.00075010746 -0.36223298 -0.16222505 1.1346517 2.017877 -1.1800412 -0.08923093 1.0066594
基础 -0.44783574 0.7793271 -0.7343851 1.8195385 0.3560866 -0.6442795 -1.9063282 0.74047416 1.7408389 -0.47843105 -0.4268522 0.3772875 0.30396077 0.59263533 0.33377612 0.8052387 0.7341569 1.3368452 -0.029676275 0.24054071 0.822279 1.2837762 -0.050351333 -0.22084117 -0.5237061 -0.034715503 0.2745715 0.021806324 -1.1740136 -0.47335383 0.11498908 0.23163222
建立 0.6875727 -0.23186447 0.10617689 1.6193116 1.1571002 0.60623187 0.21232045 0.07923773 1.553607 1.4623315 0.4523528 0.6712099 -2.7010176 0.002493867 -0.15243365 -0.20330821 -0.08763768 -0.13937354 -0.38531995 -0.55927986 -1.485957 -0.633797 -1.1955465 0.23637591 1.618447 0.82878166 0.1470176 0.35235783 -0.5876774 1.1248333 0.44471657 0.64338624
油 0.06347376 0.38181612 -1.0182534 -0.19133592 -0.6586729 -2.426236 0.6213727 0.98017776 -1.651425 0.20623265 0.8029491 0.023101974 -0.20637771 1.3724008 0.8552486 0.2793827 -0.2154781 2.0279284 0.4323462 1.099808 1.6696259 -0.12437561 0.35992643 0.29142463 1.1791024 -0.9002733 -0.6877752 -0.61168766 -0.71140337 -0.08757942 -2.3132262 2.234129
体系 -1.319705 -0.18797503 0.28472826 -1.2026743 0.71738017 0.93135303 0.61337024 -0.23224479 -0.035705563 -2.7387042 -0.8474673 -0.65740883 0.11711884 -1.1919359 1.3292756 -2.006089 0.28489515 0.39606875 -0.6598565 -0.111093715 0.06129982 -0.25479063 0.7463273 0.31386992 -0.42664266 -1.3865888 -0.76103485 -0.32005328 -1.5933977 -0.93074644 -0.35078567 -0.8657149
这些 0.6654618 -0.08456954 -0.8775329 -1.932482 -0.46377456 -0.4958204 0.46804988 0.26868483 -0.056631777 0.9655411 1.1635365 -0.02559686 -0.037623152 0.5408847 0.54516524 2.459571 -1.0929708 0.8624584 0.16444719 0.004367603 2.1394136 -0.39125514 0.7007136 1.6007525 -0.06554397 0.5910858 -1.1274089 0.36124822 -0.16823906 0.59306645 0.6153835 1.7742883
绝望 -0.75538516 1.0150986 1.1366256 0.0055643 -0.34061727 -1.0447338 -0.114592746 1.0019532 -0.85444915 0.14887677 1.7576029 1.2032572 0.5719396 0.6410667 -0.51479876 0.7854351 1.5495383 -0.49540552 -0.9389588 -0.69477224 -0.29684728 -0.8398334 1.9297348 0.5827333 -0.6006247 -0.20009004 -2.1177313 0.14651173 0.38785043 1.7657015 0.9565612 -0.6407545
心情 0.7000531 2.2551253 0.1337399 -2.7830632 -0.8177888 1.3864148 0.83763766 0.68196845 -1.4828193 -1.0139035 0.061590504 -1.4360363 -1.6650465 0.0017544567 -0.13263218 -1.7203209 0.15881714 0.16221063 0.7037996 -1.7647575 1.3913858 -0.4379176 0.6154568 0.0045125717 -0.47122586 -0.287105 0.9534874 1.0912349 -0.1440093 1.1357684 0.92807025 -0.08399841
到处 -1.4293574 -1.9537206 0.08084408 -0.343931 1.2477765 0.09421606 0.9176884 0.9459011 0.68646973 1.2395078 0.77835137 -1.251966 -0.6134289 2.1314936 1.5108998 -0.9938717 -0.09686907 -0.31562898 -1.7651731 -0.02572897 0.37518433 -0.6658604 0.7431795 1.2202972 -1.1903564 0.6889188 0.5299626 0.39856502 0.6949804 -0.5380513 -0.827383 -0.55691457
从严 -0.3831714 0.42654717 -0.6168926 -1.131758 -0.09127565 1.3890975 2.2381623 -0.45404935 -0.28926173 -1.5413804 -0.69564825 0.08066337 1.1257577 1.8430306 0.10558246 0.027290111 -0.35357508 -0.34344184 0.6457806 2.1619935 0.3191017 1.307975 0.40693077 1.1076977 0.7708554 -1.3335319 -0.5115306 -0.45824194 0.4740976 -1.9836142 -0.7274635 0.70379657
主要 -1.3459724 0.8096975 -1.6401663 0.49760616 -1.2563151 0.36502904 -0.3089123 0.95124817 0.64211416 1.0235665 -0.17730792 -2.1558762 -0.06528554 -0.7400285 0.7092338 -0.7382618 -0.5987891 -0.63815296 0.978403 -1.4378831 -0.46990448 0.6224693 1.1440396 0.2158241 -1.261378 -0.63354546 1.315082 0.66990983 -0.6620932 -0.83197045 -1.1264331 0.28886226
首要 0.53173405 0.5667425 1.6173017 2.1349957 -0.9435654 -1.851554 -0.2515505 0.56257755 0.38914278 1.5025266 2.693827 0.6390145 -1.1944236 -1.9211882 -0.78514844 -1.0245364 -0.49131405 -0.7172672 -1.2612522 -0.064433545 1.5281861 0.8561614 -0.42415965 1.2935046 -0.08179877 -0.50335395 1.6496232 -0.31103253 -1.2526194 -1.2100573 0.10776525 0.3359972
严 -2.6033556 -1.3936942 1.2929031 -0.21865956 -0.9340396 1.6674681 1.7333195 0.87938553 -1.462706 0.20633596 -2.0070102 -1.4820954 0.6002896 -0.30411118 -0.16744897 -0.6100622 -0.64419746 -0.119014986 -0.6951654 -0.70376074 0.49268112 0.2728133 -1.1890365 -0.287642 -1.0948768 1.2063335 0.013699014 1.9010103 -0.2740795 0.24523093 -0.77575475 -0.08810341
起 -0.16271262 1.8372121 0.6324535 -0.2439889 -0.06370007 -0.43298104 1.9479448 -0.021713303 0.12364704 0.8997522 -1.1755357 0.3854548 -0.03221779 -1.3683327 -0.8339912 -0.8767664 0.36359015 1.293445 0.8436303 -0.91373926 0.61329466 0.4865645 -0.5734186 -0.650117 -1.2240351 1.8228029 0.48965505 0.75776863 -0.7801784 0.45987695 0.9744315 0.08128771
好不容易 -0.44595397 1.1868453 -1.6694394 -0.6467396 -0.5951171 0.050989043 -0.38739285 -0.5846355 0.66521484 1.1246394 -1.642995 1.5868554 -0.75848025 0.4633634 0.10618909 0.80323744 -1.6600932 -0.17755607 0.10110078 -0.44170514 -0.07413369 -1.0302048 0.8814385 -1.1907444 -0.68627703 -0.23711093 0.84138346 1.2702931 -0.9281219 -0.49757773 -1.6927176 0.5198631
布局 -2.486442 -0.26484874 -0.21959457 0.6609208 0.2036112 -0.03799991 0.37982926 -1.1872325 -0.71308863 -1.7306356 0.93888396 -0.3228481 1.2748126 0.43009317 -0.6823832 0.82587105 0.9274952 -0.6304111 -0.53954357 -1.1175684 -1.5118628 -1.1062528 -2.0076168 0.53105265 -1.0659401 -0.760338 -0.083538584 -0.045101356 0.5051478 -1.4571294 0.3218064 -1.0604275
建设 -0.95701396 -0.06874478 0.9225389 -0.17182483 0.45271197 1.9863251 0.8630101 0.65200305 0.039346825 -0.47743523 0.9470787 0.5683583 1.568347 0.5864866 1.0295452 0.88855416 -0.6655383 0.18388866 -0.11400791 0.4378052 1.8520575 -0.6641606 -1.1186905 -0.98364353 1.874947 1.6566919 -0.55471885 -0.120055884 1.1957525 -0.99755806 1.1380547 -0.70539063
权 0.25432664 -0.06575982 -0.61995566 0.4592656 -0.34614667 -0.8580211 -0.49450755 1.0636888 -1.6647993 0.6386461 -0.22921802 0.41105303 0.058121 -0.6727412 2.115843 -0.25586614 -1.2081195 -0.08041154 -2.4561186 1.3228102 0.28417683 0.07712856 -0.83558816 0.12093828 0.71893334 -1.6747453 2.3631613 0.9131156 1.0438896 1.6108768 -2.953303 -0.17378707
就要 0.67077744 0.010569528 -1.2015157 1.3895929 -0.806629 1.3785733 0.54167116 1.4622089 -0.7740557 -0.41981152 0.34120676 -0.13377206 0.21598308 0.49984336 -0.635246 -0.32339686 -1.0522742 2.1766071 -1.6442244 -0.5112462 -0.69362295 -0.15020297 0.56025124 -0.520477 -1.2049557 0.8483392 -0.32121384 -1.4196252 1.5939556 0.45926982 1.0731888 -0.5838933
抓紧 0.24487774 0.75629395 -1.107879 -1.1814632 0.31050527 1.3703845 0.5371156 -0.34625 0.35737926 0.6206361 -0.4855401 -0.7299924 -0.13956153 -0.22507817 -0.58741856 -0.9534671 1.1668321 -1.4199356 -0.10968185 0.25262237 0.3471484 0.34801608 0.41299787 0.73208994 -1.5737925 0.46321794 0.15703645 1.8817511 -1.2420541 0.8668459 0.77615607 1.9579164
搞好 -0.24039814 0.57492584 -0.583125 0.6147929 -0.40575635 -0.4647215 -0.59862626 -0.113566436 1.3747633 1.9258087 1.0437899 1.3742064 -0.36198965 -0.009458691 -0.10262274 -0.4368602 -0.1206249 0.016884722 0.6342572 0.12368929 -1.5485076 0.2350321 1.726525 -2.958622 -0.19321786 0.8380986 -0.9587908 0.19978304 -0.29268187 -0.47783142 -0.28593516 -0.8286303
自身 -0.33727956 0.6336956 -0.114685774 -1.0424417 0.42464787 1.1502925 -0.8891711 1.7919968 1.0997516 -0.8330158 0.12225612 0.72112274 0.13378456 -0.41419232 -0.2882422 0.60070825 -1.1286845 -1.4438419 -0.6710273 -1.0145489 0.58666337 1.0296916 0.4757616 -0.20519735 0.33669388 0.37119228 -0.800823 1.8646492 -1.5683695 0.08537478 4.1550198 -1.8984458
靠 -0.17439224 -0.3914232 0.330453 -1.6520903 -0.56730056 -0.36556146 -0.8860415 0.30848417 0.06698628 -0.714453 0.6343266 0.46550736 1.0500315 0.4302101 1.8879606 -0.7098646 0.71270204 0.62825716 -1.046462 -0.47769123 -1.1534364 1.05265 2.3283525 0.5471151 0.2027695 0.043289397 -1.173206 -1.4211376 -0.036317106 0.63930446 1.9113153 0.7481161
只 1.433693 -1.1574603 0.36959288 0.10386035 1.6530116 0.5247186 -0.62303346 0.13370128 1.0314896 -0.6243673 -0.6470275 -0.14154027 -0.04270436 -1.1199477 -3.2761583 0.44328687 2.2660422 -0.67123604 0.41318706 -0.96652967 0.55601984 0.12593928 0.94522387 -1.4952703 -2.026661 -0.47981218 1.7434537 -1.1838489 -0.3371552 1.1489655 -0.5987132 -1.2386373
喇叭 1.4030355 1.0557001 -0.3270627 -0.39859125 -1.4116445 0.29514915 -1.0516338 -1.4727075 0.92884225 1.0649981 1.7796226 -0.045798287 0.66590154 0.20171036 -0.43300146 1.5069096 0.7198584 -0.97257453 0.10902607 0.74663526 -0.60403204 1.6183621 -1.341014 0.68685204 -0.27953258 -0.6944094 -1.4507456 -1.0350419 0.05707771 -0.95790815 0.06903778 -0.45866442
向 -0.49728417 0.7549018 0.61496013 -0.65287507 2.1248045 1.1440136 -1.4667917 -0.4973738 1.1779631 -1.4680268 1.451246 -0.30177152 -0.8934057 0.16095898 0.05160074 -0.24228124 -1.2623646 0.26300764 -0.078950964 0.061568823 0.7380409 0.4207761 -0.14675437 0.90394366 -1.2946132 0.81668746 0.11705093 -0.59388614 1.190031 0.23404352 0.31349832 -0.626597
青年 0.29490632 -0.4569231 0.5115672 0.10925656 -1.7570655 0.18967597 -0.87094355 -0.33674097 0.83217764 -0.39457485 -0.18669227 -1.0156664 0.68570614 -1.5016415 -0.18694481 -0.15024753 0.82689106 0.9155517 0.71911144 0.4274179 -1.3407909 -0.93622065 1.7484516 0.088820696 -1.32283 0.4513256 1.2922398 1.1467527 0.4242265 0.3858985 0.16364828 -0.32189858
做 -0.9245531 0.12933066 -0.32671124 0.29852355 0.8528143 0.82515323 -1.3022023 1.0705492 -0.69234294 -2.4418266 0.30358326 0.307736 0.42690524 1.6507528 -0.8651842 -0.47472537 1.0509521 -0.58114916 -1.1192654 -0.20102523 -0.18357591 0.10047173 -0.51515216 0.6985087 -0.8735558 0.46183822 0.6046949 -1.8912772 1.244354 0.8837842 -0.00030838404 -1.0409906
政治 0.66491 -0.86938334 0.29260686 -1.4149501 0.37997663 -0.63796884 -0.07079689 0.7147938 1.0144664 -0.67115825 -0.33445603 1.0197239 -1.0676377 0.49815512 0.3771551 0.18136024 0.50527495 -1.3486805 1.8214321 -2.6409702 0.83327854 0.85226977 -0.74911463 3.187862 0.43837535 1.4619318 0.22623098 -0.79594266 0.6862317 1.2057878 -0.72215855 -0.07391907
思想 2.2237098 -1.3086901 0.40915725 0.7451187 0.107044585 -1.041786 0.67813694 -0.3769722 0.21029763 1.262011 0.84514546 0.7695553 0.28425786 -1.5567161 -1.2407012 -2.1945093 0.69630057 0.42054084 -2.3944342 -0.38461006 0.9320489 -0.382005 -1.1337748 -0.82578933 0.5005588 -1.5146456 -1.8143024 1.1738147 0.09366579 -0.19025075 1.5703734 0.49197704
方法 0.23766524 -0.6273412 1.6537242 1.1211668 -1.4510095 0.74284077 1.6460186 0.94717294 -0.8472464 -2.0902307 0.21884374 -1.7846667 0.46362653 1.2258676 -2.70172 0.65923333 -0.030232495 -0.358055 0.48770645 0.17086816 1.0037055 -0.96135896 0.81270075 -1.2156571 1.6202407 -0.1759142 -0.7769906 0.15421459 1.7166437 0.98602045 2.0189028 0.7777562
已 -2.3541498 -0.8051314 -0.44776556 0.18283217 0.4063405 -0.46018547 -0.5201039 -0.9655653 1.1784184 -1.4559748 -0.044314414 -0.66830677 -2.1083536 -0.91502887 -0.66959536 0.99716866 -0.107337095 0.2685999 0.44694418 0.39854062 -0.1721345 0.7521811 -0.017046198 -1.0777949 -0.2415002 -1.0178016 0.024765333 -0.18301064 -0.2299755 -0.5160154 -0.42672026 -0.67105573
